svm_type c_svc
kernel_type linear
nr_class 4
total_sv 39
rho 1.0118239939390827 0.999495142027743 -3.772712558003682 0.9997126701978946 -3.307281992905219 -27.769248395497748
label 0 1 3 2
nr_sv 15 19 3 2
SV
100.0 0.0 0.0 1:8.550000190734863 2:20.25 
100.0 2.468802802193742 0.0 1:0.8999999761581421 2:9.75 
100.0 0.0 0.0 1:1.649999976158142 2:8.699999809265137 
100.0 0.0 0.0 1:9.0 2:26.399999618530273 
100.0 0.0 96.75626283171495 1:7.050000190734863 2:26.399999618530273 
100.0 0.0 0.0 1:11.399999618530273 2:32.55000305175781 
100.0 0.0 0.0 1:8.399999618530273 2:20.100000381469727 
100.0 0.0 0.0 1:8.399999618530273 2:23.099998474121094 
100.0 0.0 0.0 1:2.3999998569488525 2:11.25 
100.0 0.0 18.17905027610473 1:25.19999885559082 2:52.5 
100.0 0.0 0.0 1:1.649999976158142 2:16.649999618530273 
100.0 0.0 0.0 1:3.450000047683716 2:13.65000057220459 
100.0 0.0 0.0 1:7.799999713897705 2:18.899999618530273 
100.0 100.0 0.0 1:0.0 2:12.449999809265137 
100.0 -0.0 0.0 1:7.050000190734863 2:23.399999618530273 
-100.0 0.0 0.0 1:8.25 2:19.5 
-100.0 0.0 0.0 1:6.75 2:22.350000381469727 
-100.0 0.0 0.0 1:1.9499999284744263 2:11.850000381469727 
-100.0 0.0 0.0 1:9.300000190734863 2:25.650001525878906 
-9.986467533011027 0.0 0.0 1:2.8499999046325684 2:13.050000190734863 
-5.181454785870705 0.0 25.27701852070336 1:10.350000381469727 2:28.5 
-100.0 0.0 0.0 1:8.399999618530273 2:22.200000762939453 
-100.0 0.0 0.0 1:10.199999809265137 2:21.600000381469727 
-100.0 0.0 0.0 1:5.849999904632568 2:22.05000114440918 
-56.34051496414818 0.0 0.0 1:8.550000190734863 2:19.349998474121094 
-100.0 0.0 0.0 1:8.100000381469727 2:25.350000381469727 
-100.0 0.0 6.358055561580453 1:1.350000023841858 2:16.799999237060547 
-100.0 0.0 0.0 1:7.649999618530273 2:19.950000762939453 
-100.0 0.0 0.0 1:2.0999999046325684 2:16.649999618530273 
-100.0 0.0 100.0 1:8.699999809265137 2:31.499998092651367 
-28.491562716976723 0.0 0.0 1:2.8499999046325684 2:13.050000190734863 
-100.0 0.0 0.0 1:8.25 2:21.149999618530273 
-100.0 0.0 0.0 1:9.59999942779541 2:22.05000114440918 
-0.0 2.4680136854314307 0.0 1:0.8999999761581421 2:10.050000190734863 
-61.56569056992686 -1.5098438483019845 0.0 1:0.0 2:5.099999904632568 
-27.26851569907782 -0.0 0.5259705527105782 1:0.0 2:26.100000381469727 
-13.634596533184778 -0.9581698371294524 0.0 1:0.0 2:17.850000381469727 
-100.0 -100.0 -0.0 1:11.399999618530273 2:30.899999618530273 
-14.935313107819226 -31.63507408228397 -0.5259705527105782 1:0.0 2:28.049999237060547 
