svm_type c_svc
kernel_type linear
nr_class 4
total_sv 29
rho -1.0001241203012865 -0.9999362439280312 -0.9997885198186742 -0.6344838751605241 -0.13015637250398995 0.5102234086473598
label 0 1 2 3
probA 1.1455563854949982 3.441705896556791 1.5849464444252168 -3.8364017632012586 -1.0184610535318483 -0.887188586433207
probB 3.6238708227657344 3.72082420869739 2.4796046743217066 0.5042986739476761 -0.5942838250134909 0.2505286595200378
nr_sv 1 18 4 6
SV
0.5180918258113033 0.3314656945266911 0.46763731418269633 1:0.0 2:0.0 3:0.0 4:0.0 5:0.0 6:0.0 7:0.0 8:0.0 9:0.0 10:0.0 11:0.0 12:0.0 13:0.0 14:0.0 15:0.0 16:0.0 17:0.0 18:0.0 19:0.0 20:0.0 21:0.0 22:0.0 23:0.0 24:0.0 25:0.0 26:0.0 27:0.0 28:0.0 29:0.0 30:0.0 31:0.0 32:0.0 33:0.0 34:0.0 35:0.0 36:0.0 37:0.0 38:0.0 39:0.0 40:0.0 41:0.0 42:0.0 43:0.0 44:0.0 45:0.0 46:0.0 47:0.0 48:0.0 49:0.0 50:0.0 51:0.0 52:0.0 53:0.0 54:0.0 55:0.0 56:0.0 57:0.0 58:0.0 59:0.0 60:0.0 61:0.0 62:0.0 63:0.0 64:0.0 65:0.0 66:0.0 67:0.0 68:0.0 69:0.0 70:0.0 71:0.0 72:0.0 73:0.0 74:0.0 75:0.0 76:0.0 77:0.0 78:0.0 79:0.0 80:0.0 81:0.0 82:0.0 83:0.0 84:0.0 85:0.0 86:0.0 87:0.0 88:0.0 89:0.0 90:0.0 91:0.0 92:0.0 93:0.0 94:0.0 95:0.0 96:0.0 97:0.0 98:0.0 99:0.0 100:0.0 101:0.0 102:0.0 103:0.0 104:0.0 105:0.0 106:0.0 107:0.0 108:0.0 109:0.0 110:0.0 111:0.0 112:0.0 113:0.0 114:0.0 115:0.0 116:0.0 117:0.0 118:0.0 119:0.0 120:0.0 121:0.0 122:0.0 123:0.0 124:0.0 125:0.0 126:0.0 127:0.0 128:0.0 129:0.0 130:0.0 131:0.0 132:0.0 133:0.0 134:0.0 135:0.0 136:0.0 137:0.0 138:0.0 139:0.0 140:0.0 141:0.0 142:0.0 143:0.0 144:0.0 145:0.0 146:0.0 147:0.0 148:0.0 149:0.0 150:0.0 151:0.0 152:0.0 153:0.0 154:0.0 155:0.0 156:0.0 157:0.0 158:0.0 159:0.0 160:0.0 161:0.0 162:0.0 163:0.0 164:0.0 165:0.0 166:0.0 167:0.0 168:0.0 169:0.0 170:0.0 171:0.0 172:0.0 173:0.0 174:0.0 175:0.0 176:0.0 177:0.0 178:0.0 179:0.0 180:0.0 181:0.0 182:0.0 183:0.0 184:0.0 185:0.0 186:0.0 187:0.0 188:0.0 189:0.0 190:0.0 191:0.0 192:0.0 193:0.0 194:0.0 195:0.0 196:0.0 197:0.0 198:0.0 199:0.0 200:0.0 201:0.0 202:0.0 203:0.0 204:0.0 205:0.0 206:0.0 207:0.0 208:0.0 209:0.0 210:0.0 211:0.0 212:0.0 213:0.0 214:0.0 215:0.0 216:0.0 217:0.0 218:0.0 219:0.0 220:0.0 221:0.0 222:0.0 223:0.0 224:0.0 225:0.0 226:0.0 227:0.0 228:0.0 229:0.0 230:0.0 231:0.0 232:0.0 233:0.0 234:0.0 235:0.0 236:0.0 237:0.0 238:0.0 239:0.0 240:0.0 241:0.0 242:0.0 243:0.0 244:0.0 245:0.0 246:0.0 247:0.0 248:0.0 249:0.0 250:0.0 251:0.0 252:0.0 253:0.0 254:0.0 255:0.0 256:0.0 257:0.0 258:0.0 259:0.0 260:0.0 261:0.0 262:0.0 263:0.0 264:0.0 265:0.0 266:0.0 267:0.0 268:0.0 269:0.0 270:0.0 271:0.0 272:0.0 273:0.0 274:0.0 275:0.0 276:0.0 277:0.0 278:0.0 279:0.0 280:0.0 281:0.0 282:0.0 283:0.0 284:0.0 285:0.0 286:0.0 287:0.0 288:0.0 289:0.0 290:0.0 291:0.0 292:0.0 293:0.0 294:0.0 295:0.0 296:0.0 297:0.0 298:0.0 299:0.0 300:0.0 301:0.0 302:0.0 303:0.0 304:0.0 305:0.0 306:0.0 307:0.0 308:0.0 309:0.0 310:0.0 311:0.0 312:0.0 313:0.0 314:0.0 315:0.0 316:0.0 317:0.0 318:0.0 319:0.0 320:0.0 321:0.0 322:0.0 323:0.0 324:0.0 
-0.03889301135877093 0.0 0.25901625367820474 1:0.11897406727075577 2:0.06460529565811157 3:0.24646982550621033 4:0.17497903108596802 5:0.15030544996261597 6:0.06488821655511856 7:0.05603120103478432 8:0.024006659165024757 9:0.01824786700308323 10:0.14094501733779907 11:0.054714005440473557 12:0.025305239483714104 13:0.053393490612506866 14:0.16135747730731964 15:0.18451657891273499 16:0.03542733192443848 17:0.03690984845161438 18:0.05558294057846069 19:0.31309404969215393 20:0.02890762872993946 21:0.028086332604289055 22:0.016004439443349838 23:0.0468192994594574 24:0.030635911971330643 25:0.12985959649085999 26:0.22109131515026093 27:0.06269429624080658 28:0.08347161114215851 29:0.0 30:0.49377772212028503 31:0.5489194989204407 32:0.14741934835910797 33:0.09073538333177567 34:0.04091879352927208 35:0.06581747531890869 36:0.08082495629787445 37:0.05597841739654541 38:0.03162054345011711 39:0.018816562369465828 40:0.03773472085595131 41:0.05441417917609215 42:0.011998225934803486 43:0.023425264284014702 44:0.02114858664572239 45:0.025358540937304497 46:0.0691942498087883 47:0.012844569981098175 48:0.029014213010668755 49:0.004577169194817543 50:0.06806408613920212 51:0.035838596522808075 52:0.024012364447116852 53:0.018896471709012985 54:0.007456488441675901 55:0.010360858403146267 56:0.0426577590405941 57:0.08574095368385315 58:0.15940426290035248 59:0.7342381477355957 60:0.01859305612742901 61:0.013801999390125275 62:0.003690231591463089 63:0.0 64:0.009211375378072262 65:0.0022885845974087715 66:0.015412977896630764 67:0.024361737072467804 68:0.10628341883420944 69:0.6190280318260193 70:0.08157260715961456 71:0.01249789260327816 72:0.007456488441675901 73:0.1633935272693634 74:0.060349103063344955 75:0.03816812112927437 76:0.060349103063344955 77:0.2976228892803192 78:0.23937049508094788 79:0.29388201236724854 80:0.17325124144554138 81:0.09399041533470154 82:0.1979188770055771 83:0.04023273289203644 84:0.14151600003242493 85:0.1717156171798706 86:0.22565238177776337 87:0.11186110973358154 88:0.11450435221195221 89:0.0 90:0.0 91:0.3023655116558075 92:0.08046546578407288 93:0.07633624225854874 94:0.04023273289203644 95:0.11695206165313721 96:0.08867935836315155 97:0.2359999567270279 98:0.4006183445453644 99:0.1310831606388092 100:0.33286356925964355 101:0.02011636644601822 102:0.07633624225854874 103:0.02011636644601822 104:0.08096681535243988 105:0.0 106:0.08905894309282303 107:0.18557153642177582 108:0.0 109:0.03184879571199417 110:0.18545754253864288 111:0.08294034749269485 112:0.05873582512140274 113:0.08686260133981705 114:0.04876335337758064 115:0.087961345911026 116:0.06777213513851166 117:0.03158876299858093 118:0.04092322289943695 119:0.05815625190734863 120:0.2659972608089447 121:0.20341213047504425 122:0.10604331642389297 123:0.09995963424444199 124:0.07790463417768478 125:0.06313282251358032 126:0.016240589320659637 127:0.10410603880882263 128:0.0 129:0.005157286301255226 130:0.054889414459466934 131:0.08662588894367218 132:0.11851848661899567 133:0.16109566390514374 134:0.2461625337600708 135:0.10306425392627716 136:0.016043325886130333 137:0.015255365520715714 138:0.0 139:0.03817369043827057 140:0.1697547286748886 141:0.6734226942062378 142:0.3929765522480011 143:0.08382624387741089 144:0.06284546107053757 145:0.1065751165151596 146:0.09325507283210754 147:0.03272245451807976 148:0.23336340487003326 149:0.03169800341129303 150:0.09370284527540207 151:0.07820991426706314 152:0.24008986353874207 153:0.3699118494987488 154:0.13695821166038513 155:0.0929650068283081 156:0.10202999413013458 157:0.1920904815196991 158:0.14852550625801086 159:0.28864356875419617 160:0.34436532855033875 161:0.16274802386760712 162:0.047911956906318665 163:0.2355969101190567 164:0.011491638608276844 165:0.027758974581956863 166:0.05230323225259781 167:0.12595684826374054 168:0.2621338367462158 169:0.1820947676897049 170:0.10280732065439224 171:0.17374834418296814 172:0.026272542774677277 173:0.17775654792785645 174:0.11217973381280899 175:0.0846785232424736 176:0.1567777693271637 177:0.2127293348312378 178:0.19843116402626038 179:0.08191622793674469 180:0.03133883327245712 181:0.02853095717728138 182:0.0018392165657132864 183:0.043845511972904205 184:0.0 185:0.0 186:0.03107098862528801 187:0.6191783547401428 188:0.4575137794017792 189:0.011984785087406635 190:0.025498202070593834 191:0.003678433131426573 192:0.004652890842407942 193:0.0 194:0.006580181419849396 195:0.0018392165657132864 196:0.017039500176906586 197:0.033789198845624924 198:0.020410601049661636 199:0.04079178720712662 200:0.13399142026901245 201:0.21606773138046265 202:0.17833881080150604 203:0.15557624399662018 204:0.040109146386384964 205:0.13455742597579956 206:0.43279922008514404 207:0.10977595299482346 208:0.08106911927461624 209:0.012587135657668114 210:0.016893111169338226 211:0.0 212:0.013160362839698792 213:0.011510041542351246 214:0.01985471323132515 215:0.08001858741044998 216:0.21297608315944672 217:0.23511084914207458 218:0.12276726216077805 219:0.05040356144309044 220:0.08293475955724716 221:0.08286498486995697 222:0.06998894363641739 223:0.24355177581310272 224:0.2109559178352356 225:0.15503869950771332 226:0.05868219584226608 227:0.057242501527071 228:0.013046573847532272 229:0.0692572072148323 230:0.10122720897197723 231:0.12554211914539337 232:0.07595307379961014 233:0.05051823705434799 234:0.04225589334964752 235:0.6393066644668579 236:0.2358766496181488 237:0.07804487645626068 238:0.05909128487110138 239:0.0092173395678401 240:0.0 241:0.013844730332493782 242:0.043944813311100006 243:0.3819330632686615 244:0.2427244484424591 245:0.1469789743423462 246:0.05631908401846886 247:0.010685108602046967 248:0.031740907579660416 249:0.023398689925670624 250:0.07031712681055069 251:0.0644780769944191 252:0.12780475616455078 253:0.016727687790989876 254:0.0 255:0.045784659683704376 256:0.13139154016971588 257:0.08144528418779373 258:0.24096466600894928 259:0.32936885952949524 260:0.03321801871061325 261:0.004708136897534132 262:0.0 263:0.04725063219666481 264:0.018077220767736435 265:0.044343024492263794 266:0.1286628693342209 267:0.5446571707725525 268:0.6382191777229309 269:0.031430378556251526 270:0.011475862003862858 271:0.03005976974964142 272:0.046451445668935776 273:0.06214763969182968 274:0.10609450191259384 275:0.07352317869663239 276:0.0686526894569397 277:0.06635633856058121 278:0.03361581638455391 279:0.015028744004666805 280:0.10986791551113129 281:0.012298542074859142 282:0.021831855177879333 283:0.02451883628964424 284:0.003425672883167863 285:0.07205874472856522 286:0.06100092828273773 287:0.09261586517095566 288:0.12254863232374191 289:0.03109477087855339 290:0.0 291:0.025865959003567696 292:0.03369118273258209 293:0.04962335526943207 294:0.5235467553138733 295:0.63649982213974 296:0.3037775754928589 297:0.022313090041279793 298:0.12156302481889725 299:0.06721596419811249 300:0.02562316134572029 301:0.021834740415215492 302:0.023149797692894936 303:0.0654941201210022 304:0.23916171491146088 305:0.07681426405906677 306:0.11721102893352509 307:0.1184481754899025 308:0.0817309021949768 309:0.08071357011795044 310:0.043547194451093674 311:0.10081347823143005 312:0.1318049132823944 313:0.12746436893939972 314:0.10186979174613953 315:0.10871050506830215 316:0.07614102214574814 317:0.06519706547260284 318:0.07472623884677887 319:0.061267923563718796 320:0.06690539419651031 321:0.021607346832752228 322:0.033913712948560715 323:0.0092055918648839 324:0.0 
-0.01445497115785874 0.027828944024342637 0.4394272948172372 1:0.5040833353996277 2:0.16204532980918884 3:0.05033095180988312 4:0.0 5:0.0 6:0.036659590899944305 7:0.05096413940191269 8:0.0 9:0.06943801790475845 10:0.01887594163417816 11:0.034252315759658813 12:0.017606232315301895 13:0.058325108140707016 14:0.19977642595767975 15:0.02388628013432026 16:0.0260224137455225 17:0.01136772334575653 18:0.0 19:0.570132851600647 20:0.18241643905639648 21:0.013161441311240196 22:0.0030656661838293076 23:0.0 24:0.0 25:0.005361694842576981 26:0.004987773019820452 27:0.21511796116828918 28:0.1006072387099266 29:0.14935879409313202 30:0.1569843739271164 31:0.11465742439031601 32:0.05522415041923523 33:0.1549595147371292 34:0.36600416898727417 35:0.151503786444664 36:0.05274586379528046 37:0.06707059592008591 38:0.00606894213706255 39:0.005757503677159548 40:0.0121378842741251 41:0.26337844133377075 42:0.0927278995513916 43:0.014488776214420795 44:0.003034471068531275 45:0.0 46:0.012213509529829025 47:0.042705390602350235 48:0.03281588852405548 49:0.0697072446346283 50:0.2930120825767517 51:0.00429139006882906 52:0.011515007354319096 53:0.009103413671255112 54:0.0 55:0.047969941049814224 56:0.0 57:0.07887241989374161 58:0.012988599948585033 59:0.051928143948316574 60:0.47927743196487427 61:0.6828680038452148 62:0.1571173369884491 63:0.15743811428546906 64:0.017861956730484962 65:0.003034471068531275 66:0.03003215231001377 67:0.019793827086687088 68:0.039422325789928436 69:0.16186822950839996 70:0.18793059885501862 71:0.0359056331217289 72:0.01548196654766798 73:0.059068113565444946 74:0.013697453774511814 75:0.03703232854604721 76:0.04109235852956772 77:0.7212943434715271 78:0.02054618112742901 79:0.025989089161157608 80:0.048083338886499405 81:0.041685111820697784 82:0.114622563123703 83:0.02054618112742901 84:0.048075564205646515 85:0.030231742188334465 86:0.6405651569366455 87:0.013697453774511814 88:0.034652117639780045 89:0.006848726887255907 90:0.0 91:0.07400527596473694 92:0.0 93:0.0476466603577137 94:0.0 95:0.09494815021753311 96:0.016534289345145226 97:0.01732606068253517 98:0.02054618112742901 99:0.038742247968912125 100:0.08613667637109756 101:0.027394907549023628 102:0.028369300067424774 103:0.026219850406050682 104:0.08575962483882904 105:0.013697453774511814 106:0.05197817087173462 107:0.006848726887255907 108:0.009685561992228031 109:0.6100193858146667 110:0.2666858732700348 111:0.028580734506249428 112:0.02338208630681038 113:0.016778290271759033 114:0.006967308931052685 115:0.012931887060403824 116:0.04855360463261604 117:0.08160603791475296 118:0.20377883315086365 119:0.17273129522800446 120:0.09630432724952698 121:0.09470661729574203 122:0.12294615805149078 123:0.18909870088100433 124:0.2118682563304901 125:0.173567533493042 126:0.1356263905763626 127:0.20526820421218872 128:0.1871955841779709 129:0.21382734179496765 130:0.04982884228229523 131:0.016870014369487762 132:0.004081354942172766 133:0.024862835183739662 134:0.023768911138176918 135:0.050500012934207916 136:0.17865602672100067 137:0.2993684709072113 138:0.22645790874958038 139:0.02024170383810997 140:0.0374714694917202 141:0.02136385627090931 142:0.054892491549253464 143:0.059630949050188065 144:0.030166342854499817 145:0.14132073521614075 146:0.0644754022359848 147:0.17121359705924988 148:0.2594088017940521 149:0.2463529258966446 150:0.022711342200636864 151:0.049598369747400284 152:0.06816663593053818 153:0.20731550455093384 154:0.019571155309677124 155:0.04945994168519974 156:0.21657522022724152 157:0.18119417130947113 158:0.11857302486896515 159:0.37643831968307495 160:0.43659910559654236 161:0.16604110598564148 162:0.1537347286939621 163:0.04345541447401047 164:0.02051740512251854 165:0.0 166:0.038188476115465164 167:0.03409964591264725 168:0.06678328663110733 169:0.23769769072532654 170:0.21102119982242584 171:0.05762113630771637 172:0.07220150530338287 173:0.038570865988731384 174:0.061676014214754105 175:0.021801074966788292 176:0.1198892742395401 177:0.27908462285995483 178:0.16918976604938507 179:0.20081579685211182 180:0.043404895812273026 181:0.010653944686055183 182:0.047406408935785294 183:0.004518693313002586 184:0.010090973228216171 185:0.018316512927412987 186:0.12940451502799988 187:0.6315897703170776 188:0.11232305318117142 189:0.05384765937924385 190:0.01490842830389738 191:0.02157650701701641 192:0.011955441907048225 193:0.008528837002813816 194:0.01620307005941868 195:0.006742700003087521 196:0.008966581895947456 197:0.0031505359802395105 198:0.006683296523988247 199:0.21677984297275543 200:0.3328268229961395 201:0.1436806172132492 202:0.06854009628295898 203:0.07073778659105301 204:0.12827417254447937 205:0.15102271735668182 206:0.14368508756160736 207:0.318291038274765 208:0.018386270850896835 209:0.008221331052482128 210:9.962869808077812E-4 211:0.01028922013938427 212:0.017670337110757828 213:0.14195121824741364 214:0.4394727349281311 215:0.03373543545603752 216:0.009417609311640263 217:0.26445096731185913 218:0.06811723858118057 219:0.04543805867433548 220:0.02230893075466156 221:0.018596472218632698 222:0.034803006798028946 223:0.042875632643699646 224:0.06047745794057846 225:0.4016469419002533 226:0.6230809092521667 227:0.25168976187705994 228:0.0735359638929367 229:0.0 230:0.008265098556876183 231:0.02757491171360016 232:0.007450059521943331 233:0.08070100098848343 234:0.07052947580814362 235:0.16081780195236206 236:0.11037018150091171 237:0.05844306945800781 238:0.017038937658071518 239:0.012397647835314274 240:0.008519468829035759 241:0.0824693813920021 242:0.10295464843511581 243:0.13911248743534088 244:0.19852201640605927 245:0.0 246:0.028106141835451126 247:0.08530927449464798 248:0.25310108065605164 249:0.20501771569252014 250:0.1650344878435135 251:0.08864233642816544 252:0.13319091498851776 253:0.06616241484880447 254:0.19724208116531372 255:0.11998418718576431 256:0.029430219903588295 257:0.06956199556589127 258:0.10058789700269699 259:0.04528343304991722 260:0.04543066769838333 261:0.03293024003505707 262:0.13140365481376648 263:0.1215238869190216 264:0.11479628831148148 265:0.057672832161188126 266:0.18418441712856293 267:0.4986666142940521 268:0.562245786190033 269:0.12651124596595764 270:0.11178887635469437 271:0.058335378766059875 272:0.24860982596874237 273:0.36231479048728943 274:0.143870547413826 275:0.0 276:0.0 277:0.0 278:0.0 279:0.0 280:0.03659139946103096 281:0.10707081109285355 282:0.09359262883663177 283:0.07635395973920822 284:0.011941246688365936 285:0.014371037483215332 286:0.011444115079939365 287:0.014895754866302013 288:0.016462095081806183 289:0.016295114532113075 290:0.13567814230918884 291:0.2767755687236786 292:0.25937652587890625 293:0.5127773880958557 294:0.4246380627155304 295:0.0894404798746109 296:0.18382607400417328 297:0.277334064245224 298:0.08175966143608093 299:0.19537228345870972 300:0.16349674761295319 301:0.09831010550260544 302:0.37152767181396484 303:0.03625599667429924 304:0.18017877638339996 305:0.0721229761838913 306:0.02015594393014908 307:0.017924625426530838 308:0.06001381576061249 309:0.07731408625841141 310:0.02638999931514263 311:0.017924625426530838 312:0.0 313:0.02096848376095295 314:0.007287397049367428 315:0.005152967758476734 316:0.04589075222611427 317:0.005875287111848593 318:0.03352900967001915 319:0.007287397049367428 320:0.0391082763671875 321:0.014574794098734856 322:0.016131341457366943 323:0.007287397049367428 324:0.0 
-0.0 0.08884578209792184 0.0 1:0.37049031257629395 2:0.04593488946557045 3:0.0 4:0.019923344254493713 5:0.0275754202157259 6:0.01243483368307352 7:0.0692518949508667 8:0.1123146116733551 9:0.09422259032726288 10:0.21842390298843384 11:0.05364682525396347 12:0.05009317025542259 13:0.05687471479177475 14:0.0980183333158493 15:0.030599156394600868 16:0.002222621813416481 17:0.030432023108005524 18:0.007454900536686182 19:0.8004650473594666 20:0.025381620973348618 21:0.0 22:0.0 23:0.0 24:0.0 25:0.0 26:0.007028547581285238 27:0.2598602771759033 28:0.18090486526489258 29:0.046456146985292435 30:0.14039629697799683 31:0.019075121730566025 32:0.021305549889802933 33:0.00878568459302187 34:0.013930875808000565 35:0.016609560698270798 36:0.015456822700798512 37:0.013324818573892117 38:0.00277920626103878 39:0.004687264561653137 40:0.03110322542488575 41:0.08497658371925354 42:0.00578319514170289 43:0.003829222172498703 44:0.009691066108644009 45:0.003018331481143832 46:0.007591855712234974 47:0.0061257886700332165 48:0.0061810435727238655 49:0.012890863232314587 50:0.13474953174591064 51:0.006948722992092371 52:0.006230871193110943 53:0.004272984806448221 54:0.0 55:0.005467942915856838 56:0.009271477349102497 57:0.5654378533363342 58:0.24722762405872345 59:0.035385385155677795 60:0.01456290390342474 61:0.0 62:0.0022310717031359673 63:0.003018331481143832 64:0.010908789001405239 65:0.039950307458639145 66:0.26509928703308105 67:0.6859981417655945 68:0.2154569774866104 69:0.030158579349517822 70:0.021220926195383072 71:0.00323578342795372 72:0.008778851479291916 73:0.015113851986825466 74:0.0056326002813875675 75:0.016708778217434883 76:0.00991403590887785 77:0.2607135772705078 78:0.008647075854241848 79:0.004749825224280357 80:0.0056326002813875675 81:0.0 82:0.011755218729376793 83:0.004904965404421091 84:0.005937281996011734 85:0.0056326002813875675 86:0.1856129914522171 87:0.008647075854241848 88:0.020271146669983864 89:0.001877533388324082 90:0.005310466513037682 91:0.03968663141131401 92:0.162769615650177 93:0.1502055525779724 94:0.4232920706272125 95:0.425386905670166 96:0.37185004353523254 97:0.3001081943511963 98:0.1177653819322586 99:0.18712757527828217 100:0.11229154467582703 101:0.03294987604022026 102:0.023171013221144676 103:0.03693103790283203 104:0.25183457136154175 105:0.28162506222724915 106:0.14418013393878937 107:0.16968350112438202 108:0.013035004958510399 109:0.5858570337295532 110:0.12780877947807312 111:0.01740727573633194 112:0.0 113:0.0 114:0.0 115:0.0 116:0.0 117:0.11180075258016586 118:0.10829944908618927 119:0.2737380266189575 120:0.2014216035604477 121:0.02050667442381382 122:0.0170226339250803 123:0.02303507551550865 124:0.0297633595764637 125:0.02342560514807701 126:0.04186892881989479 127:0.5741881728172302 128:0.06565187126398087 129:9.937559952959418E-4 130:0.0 131:0.0014053832273930311 132:0.0 133:0.0 134:0.0 135:0.29636141657829285 136:0.12579849362373352 137:0.21148894727230072 138:0.08607801795005798 139:0.03526768088340759 140:0.01129300519824028 141:0.007568220142275095 142:0.037954699248075485 143:0.03169640526175499 144:0.04798103868961334 145:0.34029921889305115 146:0.30685627460479736 147:0.4451253414154053 148:0.052446771413087845 149:0.029185110703110695 150:0.010827252641320229 151:0.04659096524119377 152:0.2376706302165985 153:0.16923074424266815 154:0.17918938398361206 155:0.13607224822044373 156:0.16744546592235565 157:0.13418440520763397 158:0.05992452800273895 159:0.032557517290115356 160:0.08227366954088211 161:0.06458427757024765 162:0.22473935782909393 163:0.16207663714885712 164:0.06747416406869888 165:0.12243235856294632 166:0.13286761939525604 167:0.035102277994155884 168:0.07062409073114395 169:0.10825555771589279 170:0.1678856909275055 171:0.04209946095943451 172:0.08516144752502441 173:0.024782884865999222 174:0.2929689884185791 175:0.23018480837345123 176:0.22358179092407227 177:0.07788454741239548 178:0.05821991339325905 179:0.14092232286930084 180:0.027701430022716522 181:0.35372480750083923 182:0.14482660591602325 183:0.18337282538414001 184:0.16337278485298157 185:0.15689551830291748 186:0.011752204969525337 187:0.12252207845449448 188:0.20768265426158905 189:0.4664468765258789 190:0.023969847708940506 191:0.108070507645607 192:0.25451934337615967 193:0.19023922085762024 194:0.14152859151363373 195:0.0865602195262909 196:0.007432746235281229 197:0.0 198:0.010951360687613487 199:0.08569806814193726 200:0.15789245069026947 201:0.17693452537059784 202:0.5034432411193848 203:0.03304683789610863 204:0.08816072344779968 205:0.003754104021936655 206:0.06484240293502808 207:0.02589191123843193 208:0.030443290248513222 209:0.005432989913970232 210:0.09874439239501953 211:0.10000122338533401 212:0.02556949108839035 213:0.00404329365119338 214:0.005309104919433594 215:0.0 216:0.0 217:0.5649644136428833 218:0.31742995977401733 219:0.07961106300354004 220:0.019344400614500046 221:0.0014385210815817118 222:0.009098006412386894 223:0.010171880014240742 224:0.15518395602703094 225:0.09101709723472595 226:0.21498532593250275 227:0.22674809396266937 228:0.21265842020511627 229:0.05614224821329117 230:0.027434132993221283 231:0.019625775516033173 232:0.09240330010652542 233:0.07173169404268265 234:0.0521838515996933 235:0.25649675726890564 236:0.13394276797771454 237:0.0382375605404377 238:0.010551678016781807 239:0.0158237311989069 240:0.025509357452392578 241:0.0 242:0.061299245804548264 243:0.1514550745487213 244:0.4891758859157562 245:0.08089450746774673 246:0.0500556044280529 247:0.014179934747517109 248:0.0 249:0.0 250:0.002034375909715891 251:0.019354449585080147 252:0.12413161993026733 253:0.06743041425943375 254:0.03915874660015106 255:0.10991789400577545 256:0.06771393120288849 257:0.09970605373382568 258:0.08298832178115845 259:0.037898339331150055 260:0.018996503204107285 261:0.09162343293428421 262:0.3363248407840729 263:0.032304685562849045 264:0.0199227724224329 265:0.021655714139342308 266:0.007367443758994341 267:0.02510709874331951 268:0.07190623879432678 269:0.19459621608257294 270:0.17031820118427277 271:0.09649502485990524 272:0.20140622556209564 273:0.1109044998884201 274:0.07645795494318008 275:0.10921783000230789 276:0.0800475999712944 277:0.08556371927261353 278:0.022274302318692207 279:0.0420437753200531 280:0.7302067875862122 281:0.36467787623405457 282:0.0 283:0.0 284:0.01302392315119505 285:0.0 286:0.0 287:0.011793664656579494 288:0.005824475549161434 289:0.5005853176116943 290:0.18017511069774628 291:0.1451108157634735 292:0.06317324191331863 293:0.04944087937474251 294:0.047379929572343826 295:0.10523486882448196 296:0.14942003786563873 297:0.07379164546728134 298:0.2922973334789276 299:0.03158662095665932 300:0.05993139371275902 301:0.0 302:0.09888175874948502 303:0.06317324191331863 304:0.13983990252017975 305:0.03158662095665932 306:0.0446702241897583 307:0.3488011956214905 308:0.3382972776889801 309:0.19049260020256042 310:0.10784346610307693 311:0.014125965535640717 312:0.01579331047832966 313:0.06991996616125107 314:0.09236747771501541 315:0.16138707101345062 316:0.38483956456184387 317:0.14942003786563873 318:0.06991995871067047 319:0.02233511209487915 320:0.12007070332765579 321:0.01579331047832966 322:0.049942828714847565 323:0.04125925898551941 324:0.058349400758743286 
-0.06902226017909315 0.0620379447366241 0.15928413696820518 1:0.08170420676469803 2:0.015224681235849857 3:0.044935014098882675 4:0.010149787180125713 5:0.02950429730117321 6:0.015224681235849857 7:0.019257865846157074 8:0.010149787180125713 9:0.0 10:0.02496517449617386 11:0.005074893590062857 12:0.02599497139453888 13:0.015224681235849857 14:0.08180715888738632 15:0.010149787180125713 16:0.012838576920330524 17:0.005074893590062857 18:0.0 19:0.08924948424100876 20:0.010149787180125713 21:0.02567715384066105 22:0.015224681235849857 23:0.04539122432470322 24:0.020299574360251427 25:0.012838576920330524 26:0.03562965989112854 27:0.009357640519738197 28:0.3385891020298004 29:0.26153749227523804 30:0.41841161251068115 31:0.12456278502941132 32:0.05240580812096596 33:0.041663605719804764 34:0.5974546074867249 35:0.44290217757225037 36:0.19150078296661377 37:0.017479050904512405 38:0.0 39:0.010977479629218578 40:0.007490681018680334 41:0.07535801827907562 42:0.010793174616992474 43:0.008724391460418701 44:0.014384965412318707 45:0.017984144389629364 46:0.026412488892674446 47:0.05229010060429573 48:0.059724293649196625 49:0.03864492103457451 50:0.11369165778160095 51:0.15130983293056488 52:0.08663836121559143 53:0.10240796953439713 54:0.021471155807375908 55:0.034322500228881836 56:0.05248772352933884 57:0.02355300635099411 58:0.045280490070581436 59:0.5117776393890381 60:0.3242798149585724 61:0.09384280443191528 62:0.10340087115764618 63:0.015734687447547913 64:0.0492759644985199 65:0.021177053451538086 66:0.0037071534898132086 67:0.06353680044412613 68:0.12222415208816528 69:0.562046468257904 70:0.43684837222099304 71:0.08070607483386993 72:0.04334685578942299 73:0.21317599713802338 74:0.11117608845233917 75:0.15497654676437378 76:0.18345986306667328 77:0.3573485016822815 78:0.1850583851337433 79:0.0027812074404209852 80:0.1103355884552002 81:0.21324992179870605 82:0.06128406524658203 83:0.01423052791506052 84:0.01390603743493557 85:0.045588187873363495 86:0.04523204639554024 87:0.013192426413297653 88:0.01390603743493557 89:0.008794950321316719 90:0.006218968890607357 91:0.04595604166388512 92:0.028180422261357307 93:0.01390603743493557 94:0.021300967782735825 95:0.06112769618630409 96:0.12192318588495255 97:0.7931703925132751 98:0.03992435336112976 99:0.0 100:0.03539899364113808 101:0.007090715691447258 102:0.01390603743493557 103:0.006218968890607357 104:0.04129882529377937 105:0.0 106:0.0055624148808419704 107:0.0043974751606583595 108:0.0 109:0.3537576496601105 110:0.08537149429321289 111:0.03103005886077881 112:0.016354277729988098 113:0.11702168732881546 114:0.032708555459976196 115:0.0 116:0.0720948725938797 117:0.04625688120722771 118:0.14627709984779358 119:0.0 120:0.010343353264033794 121:0.0 122:0.043883129954338074 123:0.0 124:0.5658451318740845 125:0.23043681681156158 126:0.053284239023923874 127:0.4851205050945282 128:0.04272475838661194 129:0.06206011772155762 130:0.032708555459976196 131:0.029255421832203865 132:0.032708555459976196 133:0.11946064233779907 134:0.09178758412599564 135:0.14991600811481476 136:0.3010549247264862 137:0.016354277729988098 138:0.09309016913175583 139:0.0 140:0.18330173194408417 141:0.06743041425943375 142:0.07240346819162369 143:0.016354277729988098 144:0.11079682409763336 145:0.006824993062764406 146:0.008849778212606907 147:0.0 148:0.009380056522786617 149:0.011422201059758663 150:0.2251531034708023 151:0.6868432760238647 152:0.04732540249824524 153:0.0 154:0.05780501663684845 155:0.028155550360679626 156:0.02133600041270256 157:0.01330078486353159 158:0.03425587713718414 159:0.06011867895722389 160:0.3531683683395386 161:0.0426984578371048 162:0.0220829788595438 163:0.013649986125528812 164:0.0 165:0.002144888509064913 166:0.0 167:0.015924984589219093 168:0.0 169:0.020467642694711685 170:0.007164096925407648 171:0.0 172:0.0015166650991886854 173:0.0 174:0.0010724442545324564 175:0.004093741532415152 176:0.006066660396754742 177:0.07933657616376877 178:0.5748840570449829 179:0.024878045544028282 180:0.0 181:0.04860788956284523 182:0.032655876129865646 183:0.011869090609252453 184:0.025276625528931618 185:0.016864944249391556 186:0.051793359220027924 187:0.4824918508529663 188:0.17721082270145416 189:0.04939858987927437 190:0.008992195129394531 191:0.0 192:0.004238961264491081 193:0.0 194:0.0029973983764648438 195:0.0013404772616922855 196:0.059404123574495316 197:0.26060113310813904 198:0.0049524796195328236 199:0.009170275181531906 200:0.01511465199291706 201:0.010613683611154556 202:0.019851243123412132 203:0.024084489792585373 204:0.02671031281352043 205:0.4217194616794586 206:0.15318121016025543 207:0.044211335480213165 208:0.02773270569741726 209:0.0013404772616922855 210:0.007702229544520378 211:0.009170275181531906 212:0.0036464924924075603 213:0.03035394474864006 214:0.12373057007789612 215:0.6363576650619507 216:0.16467346251010895 217:0.5196502208709717 218:0.020297817885875702 219:0.10269974172115326 220:0.028705449774861336 221:0.08169714361429214 222:0.020297817885875702 223:0.05134987086057663 224:0.040595635771751404 225:0.1393176019191742 226:0.07261968404054642 227:0.020297817885875702 228:0.19256199896335602 229:0.06930109113454819 230:0.34494349360466003 231:0.08959890156984329 232:0.07702480256557465 233:0.0 234:0.0 235:0.6006563901901245 236:0.0 237:0.0 238:0.0 239:0.0998520627617836 240:0.060893457382917404 241:0.06418734043836594 242:0.0 243:0.07318482547998428 244:0.3358660340309143 245:0.0 246:0.012837467715144157 247:0.0 248:0.06354222446680069 249:0.0 250:0.07702480256557465 251:0.0 252:0.0 253:0.2871280908584595 254:0.0 255:0.11279456317424774 256:0.0 257:0.3828374445438385 258:0.0 259:0.0451178252696991 260:0.0 261:0.0 262:0.2711765170097351 263:0.0 264:0.24814800918102264 265:0.03566877543926239 266:0.30307963490486145 267:0.10700632631778717 268:0.15791237354278564 269:0.07133755087852478 270:0.0 271:0.20737028121948242 272:0.0 273:0.0451178252696991 274:0.0 275:0.30307963490486145 276:0.03566877543926239 277:0.0451178252696991 278:0.03566877543926239 279:0.0 280:0.3190312087535858 281:0.03566877543926239 282:0.15791237354278564 283:0.03566877543926239 284:0.41474056243896484 285:0.07133755087852478 286:0.1353534758090973 287:0.14267510175704956 288:0.0 289:0.0025782492011785507 290:0.0 291:0.0024307966232299805 292:0.008482853882014751 293:0.006015914957970381 294:0.029637295752763748 295:0.7262663245201111 296:0.12869398295879364 297:0.0062611778266727924 298:0.13236847519874573 299:0.24743856489658356 300:0.04144389182329178 301:0.041677769273519516 302:0.008637027814984322 303:0.1198243796825409 304:0.4193454384803772 305:0.3181202709674835 306:0.17386044561862946 307:0.026873184368014336 308:0.029824022203683853 309:0.03121127188205719 310:0.015021338127553463 311:0.013750662095844746 312:0.0027177133597433567 313:0.0036461949348449707 314:0.0050203837454319 315:0.010455251671373844 316:0.014988486655056477 317:0.0534726157784462 318:0.053548648953437805 319:0.03702840209007263 320:0.10656687617301941 321:0.1265825629234314 322:0.1107763722538948 323:0.029251977801322937 324:0.0062566460110247135 
-0.0 0.0677427765404039 0.10691048305341538 1:0.11134025454521179 2:0.06690715998411179 3:0.10497259348630905 4:0.041494064033031464 5:0.3340207636356354 6:0.11736293137073517 7:0.026243148371577263 8:0.0 9:0.0 10:0.12989695370197296 11:0.0 12:0.07872944325208664 13:0.0 14:0.5010311007499695 15:0.0 16:0.0 17:0.0 18:0.0 19:0.46391770243644714 20:0.08298812806606293 21:0.0 22:0.12448219209909439 23:0.14845366775989532 24:0.0 25:0.026243148371577263 26:0.0 27:0.0 28:0.03711341693997383 29:0.0 30:0.13121575117111206 31:0.041494064033031464 32:0.5381445288658142 33:0.0 34:0.0 35:0.0 36:0.0 37:0.027982285246253014 38:0.0 39:0.02826637588441372 40:0.0291230957955122 41:0.13191649317741394 42:0.0 43:0.005653275176882744 44:0.0 45:0.0 46:0.007994938641786575 47:0.03229030594229698 48:0.04833272844552994 49:0.05733417719602585 50:0.1798861175775528 51:0.0 52:0.0 53:0.0 54:0.0 55:0.04796963185071945 56:0.09499353915452957 57:0.10223972797393799 58:0.021579721942543983 59:0.06795697659254074 60:0.0597798153758049 61:0.05653274804353714 62:0.0 63:0.0 64:0.1834116280078888 65:0.12419681996107101 66:0.2935818135738373 67:0.8475569486618042 68:0.20032383501529694 69:0.09087220579385757 70:0.04592214897274971 71:0.05381733551621437 72:0.02038317359983921 73:0.005700003821402788 74:0.0 75:0.0026870074216276407 76:0.019633827731013298 77:0.05700003728270531 78:0.013293917290866375 79:0.0053740148432552814 80:0.0021242660004645586 81:0.0 82:0.0145583376288414 83:0.0 84:0.004030511248856783 85:0.0021242660004645586 86:0.04180002957582474 87:0.0063727982342243195 88:0.004030511248856783 89:0.0 90:0.0 91:0.07942892611026764 92:0.20776362717151642 93:0.505918025970459 94:0.6571630239486694 95:0.3145482540130615 96:0.10264848172664642 97:0.12855887413024902 98:0.07041822373867035 99:0.060038235038518906 100:0.04613810405135155 101:0.06529786437749863 102:0.18218186497688293 103:0.02322855219244957 104:0.181876540184021 105:0.15359251201152802 106:0.04112832993268967 107:0.11986831575632095 108:0.09678827226161957 109:0.016313225030899048 110:0.0 111:0.002714162692427635 112:0.0021457341499626637 113:0.006717210169881582 114:0.004291468299925327 115:0.00542832538485527 116:0.0021457341499626637 117:0.0 118:0.029865778982639313 119:0.022931694984436035 120:0.009499569423496723 121:0.042505037039518356 122:0.016313225030899048 123:0.018207158893346786 124:0.013683129101991653 125:0.013356986455619335 126:0.0 127:0.035505253821611404 128:0.040482521057128906 129:0.027207694947719574 130:0.020119450986385345 131:0.005757608916610479 132:0.0 133:0.002714162692427635 134:0.0 135:0.036013923585414886 136:0.06940346956253052 137:0.4252895414829254 138:0.7459865212440491 139:0.1355142593383789 140:0.2931394577026367 141:0.33390286564826965 142:0.026489146053791046 143:0.1647215038537979 144:0.06449233740568161 145:0.005804345943033695 146:0.0826016515493393 147:0.2671149671077728 148:0.1916017085313797 149:0.05685679242014885 150:0.018315058201551437 151:0.006164820399135351 152:0.007275467272847891 153:0.011170456185936928 154:0.10406116396188736 155:0.22232630848884583 156:0.6468746662139893 157:0.2948962450027466 158:0.10578802227973938 159:0.03090239316225052 160:0.0831243172287941 161:0.0 162:0.02587868459522724 163:0.07337383925914764 164:0.13205327093601227 165:0.14384311437606812 166:0.30473580956459045 167:0.1290113627910614 168:0.09095074981451035 169:0.044713206589221954 170:0.02026071771979332 171:0.016700590029358864 172:0.060167957097291946 173:0.11640715599060059 174:0.28186488151550293 175:0.1208670511841774 176:0.08402878791093826 177:0.0837123692035675 178:0.045080021023750305 179:0.031009485945105553 180:0.06027274206280708 181:0.19036613404750824 182:0.44114384055137634 183:0.5877150297164917 184:0.33649179339408875 185:0.14403894543647766 186:0.1451796591281891 187:0.041040871292352676 188:0.0 189:0.07766232639551163 190:0.028035670518875122 191:0.058370739221572876 192:0.18004876375198364 193:0.0 194:0.018989000469446182 195:0.010363860055804253 196:0.005370900500565767 197:0.0 198:0.0 199:0.06396020203828812 200:0.1748235523700714 201:0.4284418225288391 202:0.05752737447619438 203:0.040491219609975815 204:0.009634052403271198 205:0.010741801001131535 206:0.012350768782198429 207:0.018273189663887024 208:0.0030382401309907436 209:0.0 210:0.0 211:0.0 212:0.0 213:0.0 214:0.0 215:0.0 216:0.0 217:0.04844963178038597 218:0.008184533566236496 219:0.008434309624135494 220:0.008862053975462914 221:0.02058427594602108 222:0.008184533566236496 223:0.016162710264325142 224:0.02469402551651001 225:0.047977231442928314 226:0.0032240457367151976 227:0.036618344485759735 228:0.009269471280276775 229:0.21158093214035034 230:0.8809113502502441 231:0.18972580134868622 232:0.3361251652240753 233:0.14880408346652985 234:0.009935478679835796 235:0.015045546926558018 236:0.0 237:0.0015198297332972288 238:0.0 239:0.010746819898486137 240:0.0 241:0.0015198297332972288 242:0.0 243:0.0 244:0.0 245:0.0 246:0.0 247:0.0 248:0.0 249:0.0 250:0.0 251:0.0 252:0.0 253:0.06823476403951645 254:0.019231798127293587 255:0.47487708926200867 256:0.3637990951538086 257:0.6720927357673645 258:0.2245844453573227 259:0.045337703078985214 260:0.10425449162721634 261:0.06877530366182327 262:0.1513834297657013 263:0.031864065676927567 264:0.13938862085342407 265:0.16902975738048553 266:0.11233799904584885 267:0.10377253592014313 268:0.13485418260097504 269:0.0539911612868309 270:0.023255204781889915 271:0.0 272:0.0 273:0.0 274:0.0 275:0.018321484327316284 276:0.0 277:0.0 278:0.0 279:0.0 280:0.0 281:0.0 282:0.0 283:0.0 284:0.004071441013365984 285:0.0 286:0.0 287:0.0 288:0.0 289:0.5165813565254211 290:0.22974996268749237 291:0.20111915469169617 292:0.0 293:0.5688508749008179 294:0.0 295:0.040223829448223114 296:0.06359945982694626 297:0.0 298:0.028442542999982834 299:0.0 300:0.0 301:0.0 302:0.3128679692745209 303:0.0 304:0.12067148089408875 305:0.0 306:0.0 307:0.14221271872520447 308:0.0 309:0.040223829448223114 310:0.0 311:0.028442542999982834 312:0.0 313:0.0 314:0.0 315:0.0 316:0.3413105010986328 317:0.0 318:0.0 319:0.0 320:0.22754034399986267 321:0.0 322:0.08044765889644623 323:0.0 324:0.0 
-0.055454509739748525 0.07078588658274108 0.08639679353012325 1:0.7246849536895752 2:0.0 3:0.1204533502459526 4:0.025227265432476997 5:0.3509255349636078 6:0.0 7:0.0478653647005558 8:0.040677741169929504 9:0.0465167760848999 10:0.045127902179956436 11:0.0 12:0.01595512218773365 13:0.050454530864953995 14:0.22563950717449188 15:0.0 16:0.0 17:0.0 18:0.0 19:0.4287150800228119 20:0.025227265432476997 21:0.0478653647005558 22:0.0 23:0.045127902179956436 24:0.0 25:0.0 26:0.0 27:0.0 28:0.2594854235649109 29:0.050454530864953995 30:0.0957307294011116 31:0.025227265432476997 32:0.07897382974624634 33:0.0 34:0.0 35:0.0 36:0.0 37:0.008211543783545494 38:0.0 39:0.014930838719010353 40:0.0052461628802120686 41:0.024634629487991333 42:0.0 43:0.001658982248045504 44:0.0 45:0.0 46:0.016757862642407417 47:0.015311854891479015 48:0.022478394210338593 49:0.011578841134905815 50:0.03636540472507477 51:0.0 52:0.006635928992182016 53:0.0 54:0.0 55:0.028762372210621834 56:0.013115406036376953 57:0.02359425276517868 58:0.0 59:0.01994231902062893 60:0.017471155151724815 61:0.01600673794746399 62:0.01796422339975834 63:0.007419194560497999 64:0.04036129266023636 65:0.07214042544364929 66:0.9092984795570374 67:0.3918572664260864 68:0.07285454869270325 69:0.00745980441570282 70:0.031826019287109375 71:0.0 72:0.008546319790184498 73:0.008960274048149586 74:0.0033392971381545067 75:0.0031679351814091206 76:0.02754063345491886 77:0.03808116540312767 78:0.01376231200993061 79:0.0031679351814091206 80:0.0016696485690772533 81:0.0 82:0.021120399236679077 83:0.0033392971381545067 84:0.0 85:0.0016696485690772533 86:0.011200342327356339 87:0.014048779383301735 88:0.007972119376063347 89:0.0016696485690772533 90:0.002361239632591605 91:0.12151794880628586 92:0.42706742882728577 93:0.7021176218986511 94:0.36419615149497986 95:0.3082332909107208 96:0.17944742739200592 97:0.05679900199174881 98:0.13328878581523895 99:0.015257148072123528 100:0.03553145378828049 101:0.05671219527721405 102:0.05424632132053375 103:0.0 104:0.06826873123645782 105:0.0288450438529253 106:0.045562222599983215 107:0.09157148003578186 108:0.04541561380028725 109:0.03350813314318657 110:0.003567927051335573 111:0.0022565550170838833 112:0.010703781619668007 113:0.007978127337992191 114:0.0 115:0.0022565550170838833 116:0.0 117:0.0 118:0.08150895684957504 119:0.013731235638260841 120:0.011282775551080704 121:0.10030926764011383 122:0.027125632390379906 123:0.008613738231360912 124:0.013762773014605045 125:0.022192977368831635 126:0.006578932050615549 127:0.03989063575863838 128:0.003567927051335573 129:0.004513110034167767 130:0.0 131:0.012765003368258476 132:0.0 133:0.009026220068335533 134:0.003567927051335573 135:0.0 136:0.29946091771125793 137:0.4714829623699188 138:0.26042017340660095 139:0.18177922070026398 140:0.4504961669445038 141:0.24499733746051788 142:0.50042724609375 143:0.12369957566261292 144:0.1915796399116516 145:0.030443042516708374 146:0.09668625891208649 147:0.3439616560935974 148:0.24215896427631378 149:0.033332012593746185 150:0.0 151:0.006690218113362789 152:0.008237265050411224 153:0.0 154:0.13893553614616394 155:0.3004358410835266 156:0.638493537902832 157:0.09238161146640778 158:0.18605388700962067 159:0.0718521848320961 160:0.049358777701854706 161:0.035259075462818146 162:0.04388046637177467 163:0.05117598548531532 164:0.14563119411468506 165:0.06574130803346634 166:0.1890161782503128 167:0.18852569162845612 168:0.13567577302455902 169:0.05797969549894333 170:0.008438223972916603 171:0.020407551899552345 172:0.0799894779920578 173:0.07112057507038116 174:0.24192918837070465 175:0.18269388377666473 176:0.09163952618837357 177:0.04667653888463974 178:0.01153700053691864 179:0.06651251018047333 180:0.014883182011544704 181:0.2389383614063263 182:0.5811113119125366 183:0.6291617751121521 184:0.17810045182704926 185:0.1490679681301117 186:0.04580715298652649 187:0.05602826923131943 188:0.004139785189181566 189:0.17354623973369598 190:0.029025860130786896 191:0.03819986805319786 192:0.03679479658603668 193:0.0 194:0.010333528742194176 195:0.0036308320704847574 196:0.004871272016316652 197:0.0 198:0.0 199:0.10943537205457687 200:0.12706749141216278 201:0.29002639651298523 202:0.05171263962984085 203:0.02066705748438835 204:0.009468051604926586 205:0.003247514832764864 206:0.022756190970540047 207:0.017415976151823997 208:0.0 209:0.0 210:0.0 211:0.0 212:0.0 213:0.0 214:0.0 215:0.0 216:0.0 217:0.08607782423496246 218:0.0 219:0.005292714107781649 220:0.0 221:0.029940113425254822 222:0.0 223:0.005292714107781649 224:0.0 225:0.0 226:0.17985771596431732 227:0.0 228:0.018786542117595673 229:0.10482535511255264 230:0.6180868148803711 231:0.30090853571891785 232:0.0773700699210167 233:0.6728118658065796 234:0.10846418142318726 235:0.018712570890784264 236:0.0 237:0.005292714107781649 238:0.0 239:0.048652686178684235 240:0.0 241:0.0 242:0.0 243:0.0 244:0.03742514178156853 245:0.0 246:0.010585428215563297 247:0.0 248:0.02619759924709797 249:0.0 250:0.0 251:0.0 252:0.0 253:0.045451048761606216 254:0.039809539914131165 255:0.5070835947990417 256:0.2121788114309311 257:0.8034533858299255 258:0.036865223199129105 259:0.015736103057861328 260:0.027928641065955162 261:0.007037398871034384 262:0.149877667427063 263:0.032225899398326874 264:0.012588881887495518 265:0.019904769957065582 266:0.031314048916101456 267:0.04599315673112869 268:0.09349293261766434 269:0.09721503406763077 270:0.024911748245358467 271:0.002225420903414488 272:0.0 273:0.0 274:0.0 275:0.015577946789562702 276:0.0 277:0.0031472204718738794 278:0.0 279:0.0 280:0.0 281:0.0 282:0.0 283:0.0 284:0.0 285:0.0 286:0.0 287:0.0 288:0.0 289:0.3724607527256012 290:0.0 291:0.08778983354568481 292:0.0 293:0.34142234921455383 294:0.0 295:0.17557966709136963 296:0.06940396130084991 297:0.0 298:0.15519197285175323 299:0.0 300:0.0 301:0.0 302:0.21726876497268677 303:0.0 304:0.04389491677284241 305:0.0 306:0.0 307:0.24830715358257294 308:0.0 309:0.04389491677284241 310:0.0 311:0.12415357679128647 312:0.0 313:0.04389491677284241 314:0.0 315:0.0 316:0.6828446984291077 317:0.0 318:0.04389491677284241 319:0.0 320:0.24830715358257294 321:0.0 322:0.13168475031852722 323:0.0 324:0.0 
-0.0 0.1324900928440163 0.03150488026480813 1:0.3695049583911896 2:0.0 3:0.02079993300139904 4:0.0 5:0.1323699653148651 6:0.06064170226454735 7:0.12479959428310394 8:0.0 9:0.0 10:0.44123321771621704 11:0.11880479753017426 12:0.13622936606407166 13:0.23819294571876526 14:0.20590883493423462 15:0.0 16:0.14559951424598694 17:0.1644379049539566 18:0.1646413803100586 19:0.2500321567058563 20:0.0 21:0.04159986600279808 22:0.0 23:0.16178551316261292 24:0.0 25:0.04159986600279808 26:0.0 27:0.0 28:0.544187605381012 29:0.03288758173584938 30:0.14559951424598694 31:0.04651006683707237 32:0.08824664354324341 33:0.0 34:0.06239979714155197 35:0.0 36:0.0 37:0.12345153838396072 38:0.03943514823913574 39:0.0997639074921608 40:0.07887029647827148 41:0.45853427052497864 42:0.03943514823913574 43:0.12470488250255585 44:0.0 45:0.0 46:0.10581560432910919 47:0.0 48:0.0249409768730402 49:0.0 50:0.40562647581100464 51:0.0 52:0.0249409768730402 53:0.0 54:0.0 55:0.08817967027425766 56:0.0 57:0.0 58:0.0 59:0.3174467980861664 60:0.0 61:0.0249409768730402 62:0.0 63:0.0 64:0.21163120865821838 65:0.03943514823913574 66:0.07482292503118515 67:0.20119936764240265 68:0.5996217727661133 69:0.03943514823913574 70:0.0 71:0.0 72:0.0 73:0.018461164087057114 74:0.0 75:0.0522160530090332 76:0.08256083726882935 77:0.23999512195587158 78:0.08256083726882935 79:0.0522160530090332 80:0.0 81:0.0 82:0.03692232817411423 83:0.0 84:0.0261080265045166 85:0.0 86:0.5538349151611328 87:0.0 88:0.0783240795135498 89:0.0 90:0.0 91:0.46152907609939575 92:0.0 93:0.23497222363948822 94:0.28188028931617737 95:0.33230093121528625 96:0.08256083726882935 97:0.0522160530090332 98:0.08256083726882935 99:0.0 100:0.33230093121528625 101:0.0 102:0.0261080265045166 103:0.0 104:0.1476893126964569 105:0.0 106:0.0261080265045166 107:0.0 108:0.0 109:0.07288934290409088 110:0.012811866588890553 111:0.003112423699349165 112:0.0 113:0.007336053531616926 114:0.0030247322283685207 115:0.0051873731426894665 116:0.0 117:0.01584687829017639 118:0.03958392143249512 119:0.07277518510818481 120:0.19239740073680878 121:0.12361212074756622 122:0.3764500916004181 123:0.4514041543006897 124:0.2401312291622162 125:0.11391495168209076 126:0.07779489457607269 127:0.011004080064594746 128:0.0016403914196416736 129:0.0 130:0.0 131:7.336053531616926E-4 132:0.0 133:0.003112423699349165 134:0.0 135:0.020184148102998734 136:0.009012622758746147 137:0.04309340566396713 138:0.007800981402397156 139:0.06043246388435364 140:0.11150465905666351 141:0.19584643840789795 142:0.62492436170578 143:0.2291920930147171 144:0.11313354223966599 145:0.007747480645775795 146:0.030513346195220947 147:0.0345895029604435 148:0.05473728105425835 149:0.4486440122127533 150:0.3184548318386078 151:0.08092698454856873 152:0.077418752014637 153:0.017182551324367523 154:0.0049345409497618675 155:0.0012580660404637456 156:0.015059816651046276 157:0.08902492374181747 158:0.4175231158733368 159:0.2771385908126831 160:0.012881673872470856 161:0.0 162:0.0028131213039159775 163:0.11585449427366257 164:0.009675979614257812 165:0.1074625700712204 166:0.20464923977851868 167:0.26567065715789795 168:0.12717272341251373 169:0.1441173255443573 170:0.14900796115398407 171:0.019555356353521347 172:0.12113740295171738 173:0.12944088876247406 174:0.07348977029323578 175:0.18126598000526428 176:0.25818055868148804 177:0.2291213721036911 178:0.1336115449666977 179:0.12528805434703827 180:0.018835339695215225 181:0.036160558462142944 182:0.01967153325676918 183:0.011003080755472183 184:0.03048386052250862 185:0.3613430857658386 186:0.45159924030303955 187:0.02035672590136528 188:0.05101768672466278 189:0.09775934368371964 190:0.013196065090596676 191:0.0016392944380640984 192:0.002073561539873481 193:0.0016392944380640984 194:0.009530491195619106 195:0.008859637193381786 196:0.02183266170322895 197:0.017103489488363266 198:0.0 199:0.14377230405807495 200:0.18806041777133942 201:0.4563100039958954 202:0.3607155978679657 203:0.4600411355495453 204:0.10333684831857681 205:0.0470706969499588 206:0.13387878239154816 207:0.06850890070199966 208:0.07653778046369553 209:0.019996177405118942 210:0.006348318420350552 211:0.0 212:0.014707936905324459 213:0.011843831278383732 214:0.018168726935982704 215:0.020694183185696602 216:0.010677105747163296 217:0.2892800569534302 218:0.03804999217391014 219:0.0481298565864563 220:0.0 221:0.06806589663028717 222:0.0 223:0.02406492829322815 224:0.0 225:0.0 226:0.11911532282829285 227:0.0 228:0.12032464146614075 229:0.0 230:0.32331299781799316 231:0.07609998434782028 232:0.02406492829322815 233:0.0 234:0.0 235:0.4281732439994812 236:0.06135376915335655 237:0.1816783994436264 238:0.190249964594841 239:0.34032949805259705 240:0.23812152445316315 241:0.16845449805259705 242:0.35179781913757324 243:0.0 244:0.27502498030662537 245:0.07609998434782028 246:0.07219478487968445 247:0.15219996869564056 248:0.13613179326057434 249:0.1784038543701172 250:0.1443895697593689 251:0.07609998434782028 252:0.0 253:0.08251452445983887 254:0.009710951708257198 255:0.0061417450197041035 256:0.13853619992733002 257:0.33508026599884033 258:0.09211111068725586 259:0.11107371002435684 260:0.019421903416514397 261:0.062294382601976395 262:0.03474295511841774 263:0.04871013015508652 264:0.046367160975933075 265:0.18447227776050568 266:0.8481302857398987 267:0.24730493128299713 268:0.05250890925526619 269:0.0 270:0.04954558238387108 271:0.0434286966919899 272:0.0 273:0.03070872463285923 274:0.0 275:0.04777156561613083 276:0.0 277:0.03070872463285923 278:0.0 279:0.0 280:0.06080017238855362 281:0.009710951708257198 282:0.0 283:0.009710951708257198 284:0.03040008619427681 285:0.009710951708257198 286:0.0 287:0.009710951708257198 288:0.0 289:0.03883667662739754 290:0.07001381367444992 291:0.4846581518650055 292:0.42675742506980896 293:0.5059522986412048 294:0.04342072457075119 295:0.3480112552642822 296:0.04342072457075119 297:0.09901448339223862 298:0.0970916897058487 299:0.0 300:0.02746167592704296 301:0.0 302:0.03883667662739754 303:0.0 304:0.02746167592704296 305:0.0 306:0.0 307:0.3106934130191803 308:0.0 309:0.05492335185408592 310:0.0 311:0.23302005231380463 312:0.0 313:0.05492335185408592 314:0.0 315:0.0 316:0.03883667662739754 317:0.0 318:0.02746167592704296 319:0.0 320:0.11651002615690231 321:0.0 322:0.02746167592704296 323:0.0 324:0.0 
-0.0 0.08220495373150999 0.16875000556113712 1:0.15415586531162262 2:0.0 3:0.0872037261724472 4:0.0 5:0.4008052349090576 6:0.0 7:0.0436018630862236 8:0.0 9:0.0 10:0.18498703837394714 11:0.0 12:0.0872037261724472 13:0.0 14:0.6474546194076538 15:0.0 16:0.0 17:0.0 18:0.0 19:0.30831173062324524 20:0.0 21:0.1308055818080902 22:0.0 23:0.4008052349090576 24:0.0 25:0.0 26:0.0 27:0.0 28:0.21581821143627167 29:0.0 30:0.0436018630862236 31:0.0 32:0.15415586531162262 33:0.0 34:0.0 35:0.0 36:0.0 37:0.016608919948339462 38:0.012379558756947517 39:0.010439359582960606 40:0.0 41:0.03690871223807335 42:0.0 43:0.0 44:0.0 45:0.0 46:0.02952696941792965 47:0.0 48:0.015659039840102196 49:0.011735444888472557 50:0.13479354977607727 51:0.021697744727134705 52:0.015659039840102196 53:0.0 54:0.0058357794769108295 55:0.08778494596481323 56:0.044708251953125 57:0.13085609674453735 58:0.06425745785236359 59:0.020299790427088737 60:0.03163571655750275 61:0.037868767976760864 62:0.02324559912085533 63:0.06317409127950668 64:0.2690368890762329 65:0.2584959864616394 66:0.21052604913711548 67:0.2176576405763626 68:0.26596546173095703 69:0.2695435881614685 70:0.19506189227104187 71:0.5266115069389343 72:0.4999326467514038 73:0.2220909744501114 74:0.0408320352435112 75:0.12912222743034363 76:0.1224961057305336 77:0.4199947416782379 78:0.0816640704870224 79:0.23241998255252838 80:0.1633281409740448 81:0.0 82:0.03652128204703331 83:0.0 84:0.0 85:0.0 86:0.3104308843612671 87:0.0 88:0.05164888873696327 89:0.0816640704870224 90:0.0 91:0.3834734559059143 92:0.1224961057305336 93:0.2349771112203598 94:0.0408320352435112 95:0.3104308843612671 96:0.18024131655693054 97:0.07747333496809006 98:0.0 99:0.07529054582118988 100:0.4199947416782379 101:0.0 102:0.025824444368481636 103:0.0 104:0.09130320698022842 105:0.0 106:0.0 107:0.0408320352435112 108:0.0 109:0.17336109280586243 110:0.0 111:0.15323100984096527 112:0.0 113:0.41173258423805237 114:0.0 115:0.12258480489253998 116:0.0 117:0.0 118:0.47674301266670227 119:0.09691179543733597 120:0.030646201223134995 121:0.048455897718667984 122:0.15169095993041992 123:0.09691179543733597 124:0.09193859994411469 125:0.0 126:0.0 127:0.26004165410995483 128:0.0 129:0.0 130:0.0 131:0.10835068672895432 132:0.0 133:0.0 134:0.0 135:0.0 136:0.335601806640625 137:0.33185115456581116 138:0.23136378824710846 139:0.11698289215564728 140:0.23837150633335114 141:0.137053981423378 142:0.12258480489253998 143:0.14536769688129425 144:0.0 145:0.14910750091075897 146:0.141676127910614 147:0.034494079649448395 148:0.14315353333950043 149:0.06390496343374252 150:0.004960064310580492 151:0.04510977864265442 152:0.0836721882224083 153:0.1484995037317276 154:0.1914369761943817 155:0.18233291804790497 156:0.09714167565107346 157:0.055116523057222366 158:0.12080622464418411 159:0.0893462747335434 160:0.1346776932477951 161:0.2487424910068512 162:0.2842314839363098 163:0.26135432720184326 164:0.06155148893594742 165:0.20839598774909973 166:0.1180625930428505 167:0.15563419461250305 168:0.00442341435700655 169:0.10479578375816345 170:0.15417250990867615 171:0.20190821588039398 172:0.22197546064853668 173:0.18331840634346008 174:0.46037667989730835 175:0.1487506479024887 176:0.11484861373901367 177:0.07363486289978027 178:0.09693934768438339 179:0.1352860927581787 180:0.20636433362960815 181:0.49549874663352966 182:0.1231076568365097 183:0.2335803210735321 184:0.192368745803833 185:0.20186986029148102 186:0.0 187:0.05190674215555191 188:0.0 189:0.07566642761230469 190:0.2569252848625183 191:0.08207177370786667 192:0.07786010950803757 193:0.041035886853933334 194:0.22022166848182678 195:0.0 196:0.025953371077775955 197:0.0 198:0.0 199:0.3333105742931366 200:0.0 201:0.23677535355091095 202:0.0 203:0.11011083424091339 204:0.39016544818878174 205:0.1816735863685608 206:0.06616837531328201 207:0.23213401436805725 208:0.20186986029148102 209:0.0 210:0.0 211:0.0 212:0.055055417120456696 213:0.0 214:0.025953371077775955 215:0.041035886853933334 216:0.0 217:0.1937185376882553 218:0.0 219:0.01956852711737156 220:0.0 221:0.1522074192762375 222:0.0 223:0.05870557948946953 224:0.0 225:0.0 226:0.3241128921508789 227:0.08083071559667587 228:0.39266514778137207 229:0.2554379403591156 230:0.27674075961112976 231:0.13639584183692932 232:0.09784263372421265 233:0.1615138202905655 234:0.04375655949115753 235:0.12453334778547287 236:0.0 237:0.03913705423474312 238:0.0 239:0.1660444587469101 240:0.0 241:0.03913705423474312 242:0.0 243:0.0 244:0.1937185376882553 245:0.06188111752271652 246:0.38255512714385986 247:0.21658390760421753 248:0.33323413133621216 249:0.10563767701387405 250:0.14773277938365936 251:0.21658390760421753 252:0.0 253:0.26503172516822815 254:0.31747955083847046 255:0.5081345438957214 256:0.11560827493667603 257:0.16381852328777313 258:0.14300033450126648 259:0.05587316304445267 260:0.05970601364970207 261:0.24479880928993225 262:0.12536197900772095 263:0.32817408442497253 264:0.5220631957054138 265:0.04404386132955551 266:0.08748867362737656 267:0.010558724403381348 268:0.005235501565039158 269:0.013314105570316315 270:0.04293501004576683 271:0.022776858881115913 272:0.0 273:0.03751185163855553 274:0.13062651455402374 275:0.03157525509595871 276:0.10497605800628662 277:0.04040810093283653 278:0.008278055116534233 279:0.034695036709308624 280:0.030541984364390373 281:0.0041390275582671165 282:0.010471002198755741 283:0.00499624852091074 284:0.024988897144794464 285:0.008858244866132736 286:0.009162127040326595 287:0.0 288:0.0 289:0.319007933139801 290:0.05944361910223961 291:0.03759544715285301 292:0.0 293:0.21267196536064148 294:0.10960861295461655 295:0.18797722458839417 296:0.11888723820447922 297:0.0 298:0.5316799283027649 299:0.05944361910223961 300:0.03759544715285301 301:0.0 302:0.05316799134016037 303:0.0 304:0.11278633028268814 305:0.0 306:0.0 307:0.372175931930542 308:0.0 309:0.07519089430570602 310:0.11888723820447922 311:0.42534393072128296 312:0.0 313:0.03759544715285301 314:0.0 315:0.0 316:0.319007933139801 317:0.0 318:0.03759544715285301 319:0.0 320:0.186087965965271 321:0.0 322:0.03759544715285301 323:0.05944361910223961 324:0.0 
-0.05290486827054597 0.0 0.0 1:0.04478384181857109 2:0.0034338785335421562 3:0.021717751398682594 4:0.0034338785335421562 5:0.023035157471895218 6:0.008290116675198078 7:0.004343550652265549 8:0.010301636531949043 9:0.0 10:0.04459851607680321 11:0.0886572003364563 12:0.010858877561986446 13:0.020603271201252937 14:0.02764218859374523 15:0.0034338785335421562 16:0.010858877561986446 17:0.0034338785335421562 18:0.0 19:0.0168924480676651 20:0.0 21:0.013030651956796646 22:0.0068677570670843124 23:0.021499481052160263 24:0.0 25:0.006515325978398323 26:0.008970841765403748 27:0.004856237675994635 28:0.9765030145645142 29:0.0 30:0.006515325978398323 31:0.0 32:0.004607031587511301 33:0.0 34:0.048264987766742706 35:0.0 36:0.16856811940670013 37:0.023866266012191772 38:0.014405489899218082 39:0.0025483679492026567 40:0.002751394174993038 41:0.08186507970094681 42:0.05003250390291214 43:0.0010193471098318696 44:0.002907302463427186 45:0.011739100329577923 46:0.003964330069720745 47:0.0 48:0.004587061703205109 49:0.0 50:0.011532596312463284 51:8.058646926656365E-4 52:5.096735549159348E-4 53:0.0 54:0.0 55:0.1537572294473648 56:0.10990989953279495 57:0.0 58:0.04555540904402733 59:0.07593877613544464 60:0.001139664789661765 61:0.7010966539382935 62:0.502629280090332 63:0.34194979071617126 64:0.0055813561193645 65:0.0 66:5.096735549159348E-4 67:0.0 68:0.01592918485403061 69:0.004515719600021839 70:0.27185744047164917 71:0.10120309889316559 72:0.02375866286456585 73:0.3880520462989807 74:0.0 75:0.08442899584770203 76:0.16114147007465363 77:0.597003161907196 78:0.06674697995185852 79:0.08442899584770203 80:0.0 81:0.0 82:0.20895110070705414 83:0.0 84:0.08442899584770203 85:0.06674697995185852 86:0.5671529769897461 87:0.16114147007465363 88:0.08442899584770203 89:0.0 90:0.0 91:0.11940062791109085 92:0.0 93:0.0 94:0.0 95:0.059700313955545425 96:0.0 97:0.0 98:0.0 99:0.0 100:0.08955047279596329 101:0.0 102:0.08442899584770203 103:0.0 104:0.059700313955545425 105:0.0 106:0.04221449792385101 107:0.0 108:0.0 109:0.3173951506614685 110:0.05433635041117668 111:0.12027863413095474 112:0.0 113:0.1093497946858406 114:0.0 115:0.017182663083076477 116:0.0 117:0.03842160105705261 118:0.8753578662872314 119:0.0 120:0.10309597104787827 121:0.0 122:0.13364975154399872 123:0.0 124:0.0 125:0.0 126:0.0 127:0.20654961466789246 128:0.0 129:0.034365326166152954 130:0.03842160105705261 131:0.012149977497756481 132:0.0 133:0.0 134:0.02716817520558834 135:0.03842160105705261 136:0.06074988842010498 137:0.0 138:0.12027863413095474 139:0.0 140:0.08504984527826309 141:0.0 142:0.017182663083076477 143:0.0 144:0.0 145:0.18981829285621643 146:0.09299968928098679 147:0.0 148:0.06794910132884979 149:0.02192240208387375 150:0.06170482933521271 151:0.22502903640270233 152:0.22679859399795532 153:0.4991909861564636 154:0.12707868218421936 155:0.06673944741487503 156:0.1097586378455162 157:0.03569012135267258 158:0.011590410023927689 159:0.053781308233737946 160:0.34388768672943115 161:0.08309194445610046 162:0.23799486458301544 163:0.12013206630945206 164:0.04843605309724808 165:0.10019569098949432 166:0.005741570610553026 167:0.007825748063623905 168:0.04518448933959007 169:0.1772332340478897 170:0.14619968831539154 171:0.25746065378189087 172:0.19090457260608673 173:0.14683908224105835 174:0.08765894174575806 175:0.08965341001749039 176:0.2013475000858307 177:0.030345523729920387 178:0.17416085302829742 179:0.15098455548286438 180:0.24505013227462769 181:0.10317011177539825 182:0.0 183:0.013264051638543606 184:0.01048615388572216 185:0.09379100799560547 186:0.0 187:0.02652810327708721 188:0.0 189:0.03874177113175392 190:0.06565370410680771 191:0.0 192:0.053056199103593826 193:0.0 194:0.08910145610570908 195:0.0 196:0.02652810327708721 197:0.0 198:0.0 199:0.36728158593177795 200:0.04828187823295593 201:0.006632025819271803 202:0.037808362394571304 203:0.046895503997802734 204:0.0 205:0.02652810327708721 206:0.01048615388572216 207:0.9033828973770142 208:0.009379100985825062 209:0.0 210:0.006632025819271803 211:0.0 212:0.06565370410680771 213:0.0 214:0.006632025819271803 215:0.0 216:0.0 217:0.7179070115089417 218:0.0 219:0.1450391262769699 220:0.0 221:0.1794767528772354 222:0.0 223:0.10877934098243713 224:0.0 225:0.0 226:0.15383721888065338 227:0.0 228:0.0 229:0.0 230:0.1794767528772354 231:0.0 232:0.03625978156924248 233:0.0 234:0.0 235:0.5682305097579956 236:0.05733174830675125 237:0.03625978156924248 238:0.0 239:0.15383721888065338 240:0.0 241:0.03625978156924248 242:0.05733174830675125 243:0.08107933402061462 244:0.0 245:0.0 246:0.0 247:0.0 248:0.0 249:0.0 250:0.0 251:0.0 252:0.0 253:0.006906851194798946 254:0.029156401753425598 255:0.0052419016137719154 256:0.0 257:0.011045588180422783 258:0.0 259:0.22461733222007751 260:0.2472216933965683 261:0.1438373178243637 262:0.418756902217865 263:0.04014114290475845 264:0.005466010421514511 265:0.06481499969959259 266:0.10525397211313248 267:0.033682409673929214 268:0.2932053208351135 269:0.3810291588306427 270:0.486584335565567 271:0.010563419200479984 272:0.0 273:0.0022982971277087927 274:0.0 275:0.0028439974412322044 276:0.0 277:0.0011491485638543963 278:0.0 279:0.0 280:0.1869850754737854 281:9.084817138500512E-4 282:0.07476120442152023 283:0.01400948315858841 284:0.10031191259622574 285:0.0677887573838234 286:0.35040655732154846 287:0.15360845625400543 288:0.058724403381347656 289:0.47362056374549866 290:0.0 291:0.005744618363678455 292:0.0 293:0.008124117739498615 294:0.0 295:0.0019148727878928185 296:0.0030276798643171787 297:0.8111572861671448 298:0.009478136897087097 299:0.0030276798643171787 300:0.01148923672735691 301:0.0 302:0.023018332198262215 303:0.0030276798643171787 304:0.003829745575785637 305:0.0 306:0.0 307:0.31005194783210754 308:0.0030276798643171787 309:0.02297847345471382 310:0.0060553597286343575 311:0.021664312109351158 312:0.009083040058612823 313:0.028842303901910782 314:0.0030276798643171787 315:0.13481983542442322 316:0.008124117739498615 317:0.0 318:0.0 319:0.0 320:0.021664312109351158 321:0.0 322:0.0 323:0.0 324:0.0 
-0.0018483123323663482 0.057198914851964267 0.09179774874493411 1:0.17316921055316925 2:0.11063375324010849 3:0.17492730915546417 4:0.055316876620054245 5:0.47003069519996643 6:0.0 7:0.034985464066267014 8:0.08919578045606613 9:0.0 10:0.2721230387687683 11:0.0 12:0.13994185626506805 13:0.0 14:0.22264611721038818 15:0.0 16:0.10495638102293015 17:0.0 18:0.0 19:0.24738457798957825 20:0.0 21:0.2099127620458603 22:0.0 23:0.4947691559791565 24:0.0 25:0.13994185626506805 26:0.055316876620054245 27:0.0 28:0.32159996032714844 29:0.0 30:0.17492730915546417 31:0.0 32:0.1484307497739792 33:0.0 34:0.10495638102293015 35:0.0 36:0.0 37:0.10565480589866638 38:0.05287196859717369 39:0.003387327305972576 40:0.06130135804414749 41:0.02501538395881653 42:0.0 43:0.032856713980436325 44:0.014729292131960392 45:0.01266135461628437 46:0.0805395320057869 47:0.01623276062309742 48:0.0019356157863512635 49:0.0 50:0.041084930300712585 51:0.028830351307988167 52:0.02311805821955204 53:0.04612216353416443 54:0.0034387835767120123 55:0.6918626427650452 56:0.36123421788215637 57:0.13467232882976532 58:0.0 59:0.015059943310916424 60:0.024377278983592987 61:4.839039465878159E-4 62:0.053749483078718185 63:0.11102526634931564 64:0.1701928973197937 65:0.12095363438129425 66:0.027354702353477478 67:0.0067229787819087505 68:0.0017108587780967355 69:0.0540279783308506 70:0.2522851526737213 71:0.3238813579082489 72:0.3302238881587982 73:0.27123570442199707 74:0.0 75:0.2557234764099121 76:0.0 77:0.4821968376636505 78:0.0 79:0.29834404587745667 80:0.0 81:0.0 82:0.27123570442199707 83:0.0 84:0.0852411612868309 85:0.0 86:0.6328833103179932 87:0.0 88:0.21310290694236755 89:0.0 90:0.0 91:0.030137302353978157 92:0.0 93:0.0 94:0.0 95:0.0 96:0.0 97:0.0 98:0.0 99:0.0 100:0.060274604707956314 101:0.0 102:0.0 103:0.0 104:0.09041190892457962 105:0.0 106:0.0 107:0.0 108:0.0 109:0.3510233461856842 110:0.04617129638791084 111:0.17520774900913239 112:0.04617129638791084 113:0.3097264766693115 114:0.04617129638791084 115:0.20440903306007385 116:0.04617129638791084 117:0.0 118:0.41296863555908203 119:0.0 120:0.11680516600608826 121:0.0 122:0.3510233461856842 123:0.0 124:0.17520774900913239 125:0.0 126:0.0 127:0.3990217447280884 128:0.04617129638791084 129:0.17520774900913239 130:0.0 131:0.22713275253772736 132:0.0 133:0.05840258300304413 134:0.04617129638791084 135:0.06529607623815536 136:0.3097264766693115 137:0.0 138:0.08760387450456619 139:0.0 140:0.061945296823978424 141:0.0 142:0.029201291501522064 143:0.0 144:0.0 145:0.39964574575424194 146:0.028612885624170303 147:0.010267408564686775 148:0.0077299559488892555 149:0.02196590043604374 150:0.060655221343040466 151:0.06777267158031464 152:0.09895171225070953 153:0.31010136008262634 154:0.20189571380615234 155:0.19657541811466217 156:0.03582009673118591 157:0.029740741476416588 158:0.11623038351535797 159:0.018194157630205154 160:0.11322832107543945 161:0.1259271800518036 162:0.3940680921077728 163:0.2857678532600403 164:0.03927136957645416 165:0.039569009095430374 166:0.01466989517211914 167:0.03160382807254791 168:0.01546704676002264 169:0.014583509415388107 170:0.08558721840381622 171:0.2766014039516449 172:0.17714780569076538 173:0.06855995953083038 174:0.3269387185573578 175:0.10986465215682983 176:0.04221370816230774 177:0.10470406711101532 178:0.279542475938797 179:0.09872191399335861 180:0.1387946903705597 181:0.4578169286251068 182:0.10837869346141815 183:0.027417881414294243 184:0.0 185:0.05816211178898811 186:0.05232986435294151 187:0.027417881414294243 188:0.06502722203731537 189:0.15632475912570953 190:0.05816211178898811 191:0.0 192:0.09596257656812668 193:0.0 194:0.18418002128601074 195:0.0 196:0.013708940707147121 197:0.0 198:0.0 199:0.6809332966804504 200:0.0 201:0.027417881414294243 202:0.0 203:0.19387370347976685 204:0.0 205:0.054835762828588486 206:0.0 207:0.4235236346721649 208:0.05816211178898811 209:0.0 210:0.04112682119011879 211:0.0 212:0.07754947990179062 213:0.0 214:0.013708940707147121 215:0.0 216:0.0 217:0.3790827691555023 218:0.154119074344635 219:0.09747345745563507 220:0.0 221:0.4135448634624481 222:0.0 223:0.09747345745563507 224:0.0770595371723175 225:0.10897863656282425 226:0.06892414391040802 227:0.0 228:0.0 229:0.0 230:0.0 231:0.0 232:0.0 233:0.0 234:0.0 235:0.6547793745994568 236:0.0 237:0.0 238:0.0 239:0.10338621586561203 240:0.0 241:0.0 242:0.154119074344635 243:0.0 244:0.3101586401462555 245:0.0 246:0.24368363618850708 247:0.0 248:0.03446207195520401 249:0.0 250:0.0 251:0.0 252:0.0 253:0.14833571016788483 254:0.18502739071846008 255:0.052107468247413635 256:0.027443328872323036 257:0.034015145152807236 258:0.022162090986967087 259:0.10272493213415146 260:0.09096583724021912 261:0.6249507069587708 262:0.38669487833976746 263:0.39391157031059265 264:0.1292654126882553 265:0.031099576503038406 266:3.6977927084080875E-4 267:0.007774639874696732 268:0.05211511254310608 269:0.07554326206445694 270:0.19947592914104462 271:0.05881742388010025 272:0.02171577699482441 273:0.013368700630962849 274:0.02393702231347561 275:0.02517891861498356 276:0.04341977462172508 277:0.189971923828125 278:0.032638318836688995 279:0.16175048053264618 280:0.19782216846942902 281:0.09914499521255493 282:0.17848265171051025 283:0.03953636810183525 284:0.02332373708486557 285:0.0011693447595462203 286:0.03639153763651848 287:0.03543397784233093 288:0.050760310143232346 289:0.3189544975757599 290:0.0 291:0.0 292:0.0 293:0.08449674397706985 294:0.0 295:0.0 296:0.0 297:0.0 298:0.06337255984544754 299:0.0 300:0.05974821746349335 301:0.0 302:0.1689934879541397 303:0.0 304:0.029874108731746674 305:0.047235116362571716 306:0.0 307:0.25349023938179016 308:0.047235116362571716 309:0.08962232619524002 310:0.047235116362571716 311:0.3168627917766571 312:0.0 313:0.14937055110931396 314:0.0 315:0.0 316:0.549228847026825 317:0.0 318:0.38836345076560974 319:0.047235116362571716 320:0.3379869759082794 321:0.047235116362571716 322:0.26886698603630066 323:0.09447023272514343 324:0.0 
-0.04384411375339947 0.012799466572769048 0.18740246443662403 1:0.012726820074021816 2:0.0 3:0.012998873367905617 4:0.0 5:0.014140910468995571 6:0.0 7:0.007999306544661522 8:0.0 9:0.0 10:0.11796636879444122 11:0.034714218229055405 12:0.0019998266361653805 13:0.11701075732707977 14:0.05591188743710518 15:0.0022358743008226156 16:0.04178853705525398 17:0.1055629700422287 18:0.0708094984292984 19:0.005656364373862743 20:0.0 21:0.0029997399542480707 22:0.0 23:0.00777750089764595 24:0.0 25:0.004999566823244095 26:0.0 27:0.0 28:0.2996487319469452 29:0.0 30:0.0 31:0.0 32:0.01993502676486969 33:0.06442856043577194 34:0.07149555534124374 35:0.4600955545902252 36:0.798930287361145 37:0.06258280575275421 38:0.03094680793583393 39:0.0 40:8.999055717140436E-4 41:0.12801258265972137 42:0.01989443600177765 43:0.1334971934556961 44:0.13338720798492432 45:0.01555144414305687 46:0.0020122500136494637 47:0.0 48:0.0017074506031349301 49:0.0021725643891841173 50:0.00965879950672388 51:0.0 52:0.0011383004020899534 53:0.0 54:0.0 55:0.14244815707206726 56:0.02602267824113369 57:0.025096602737903595 58:0.010137338191270828 59:0.003622049931436777 60:0.3001914918422699 61:0.5294721722602844 62:0.42876338958740234 63:0.4007195830345154 64:0.001207349938340485 65:0.0031432348769158125 66:0.0 67:0.0 68:0.001207349938340485 69:0.0029298800509423018 70:0.4304194152355194 71:0.13460342586040497 72:0.048944342881441116 73:0.0 74:0.0 75:0.0 76:0.0 77:0.5134338736534119 78:0.0 79:0.0 80:0.0 81:0.0 82:0.0 83:0.0 84:0.0 85:0.0 86:0.5134338736534119 87:0.0 88:0.0 89:0.0 90:0.0 91:0.3422892689704895 92:0.0 93:0.21178065240383148 94:0.0 95:0.17114463448524475 96:0.0 97:0.15127190947532654 98:0.0 99:0.0 100:0.2995030879974365 101:0.0 102:0.060508761554956436 103:0.0 104:0.3636823296546936 105:0.0 106:0.1815262883901596 107:0.0 108:0.0 109:0.034097522497177124 110:0.0 111:0.014676009304821491 112:0.0 113:0.025202514603734016 114:0.0 115:0.006289718206971884 116:0.0033149728551506996 117:0.0 118:0.36565861105918884 119:0.0 120:0.0020965728908777237 121:0.0033149728551506996 122:0.010377506725490093 123:0.0 124:0.27066749334335327 125:0.27532458305358887 126:0.8442113995552063 127:0.04447502642869949 128:0.0 129:0.0020965728908777237 130:0.0 131:0.014825008809566498 132:0.0 133:0.006289718206971884 134:0.0 135:0.0 136:0.010377506725490093 137:0.0 138:0.0 139:0.0 140:0.0 141:0.0 142:0.0 143:0.0 144:0.0 145:0.15877193212509155 146:0.07043934613466263 147:0.0572909340262413 148:0.06523717194795609 149:0.09217606484889984 150:0.09976644814014435 151:0.32094013690948486 152:0.25556430220603943 153:0.257367342710495 154:0.19859959185123444 155:0.20372778177261353 156:0.09878529608249664 157:0.03854149952530861 158:0.0695454403758049 159:0.030696453526616096 160:0.32697367668151855 161:0.2518160045146942 162:0.14156098663806915 163:0.0951237604022026 164:0.10880518704652786 165:0.006239393725991249 166:0.027392681688070297 167:0.07061736285686493 168:0.08406305313110352 169:0.17802037298679352 170:0.2657507061958313 171:0.2975221276283264 172:0.15338397026062012 173:0.14454352855682373 174:0.11977893114089966 175:0.17676617205142975 176:0.23336274921894073 177:0.16297335922718048 178:0.08778024464845657 179:0.04154600575566292 180:0.126211017370224 181:0.015061663463711739 182:0.0 183:0.003993826452642679 184:0.011022991500794888 185:0.018827078863978386 186:0.002976822666823864 187:0.009318928234279156 188:0.0 189:0.07059027254581451 190:0.0047067697159945965 191:0.0 192:0.006656377576291561 193:0.0 194:0.024475201964378357 195:0.0 196:0.0026625508908182383 197:0.0 198:0.0 199:0.3698006272315979 200:0.013957337476313114 201:0.00931892916560173 202:0.0 203:0.0037654158659279346 204:0.0021049315109848976 205:0.003993826452642679 206:0.5794013738632202 207:0.7215722799301147 208:0.0 209:0.0 210:0.0 211:0.0 212:0.009413539431989193 213:0.0 214:0.0 215:0.0 216:0.0 217:0.5167732238769531 218:0.0 219:0.03789541870355606 220:0.0 221:0.3215532898902893 222:0.0 223:0.03789541870355606 224:0.0 225:0.19521991908550262 226:0.13398054242134094 227:0.0 228:0.03789541870355606 229:0.0 230:0.13398054242134094 231:0.0 232:0.0 233:0.0 234:0.0 235:0.6518033742904663 236:0.0 237:0.0 238:0.0 239:0.10718443244695663 240:0.0 241:0.0 242:0.0 243:0.16947346925735474 244:0.21436886489391327 245:0.0 246:0.11368624866008759 247:0.0 248:0.16077664494514465 249:0.0 250:0.03789541870355606 251:0.0 252:0.0 253:0.01728607900440693 254:0.018017590045928955 255:0.028129879385232925 256:8.524797158315778E-4 257:0.0038124050479382277 258:0.0 259:0.2016417384147644 260:0.2009420394897461 261:0.14347586035728455 262:0.17779019474983215 263:0.03756687417626381 264:0.03898205980658531 265:0.015870781615376472 266:0.06227172538638115 267:0.13317584991455078 268:0.35478082299232483 269:0.5047282576560974 270:0.2574915289878845 271:0.008006050251424313 272:0.0 273:0.0021566220093518496 274:0.0 275:0.0019062025239691138 276:0.0 277:0.0 278:0.0 279:0.0 280:0.05128220096230507 281:0.016929825767874718 282:0.008932750672101974 283:0.035365067422389984 284:0.004225198179483414 285:0.049939073622226715 286:0.5823542475700378 287:0.19372937083244324 288:0.10060412436723709 289:0.5392650961875916 290:0.005396045744419098 291:0.004465799313038588 292:0.02826870046555996 293:0.029081789776682854 294:0.015826834365725517 295:0.023715419694781303 296:0.0014122098218649626 297:0.7291456460952759 298:0.005052475258708 299:0.0014122098218649626 300:0.00803843792527914 301:0.002824419643729925 302:0.013894307427108288 303:0.0014122098218649626 304:0.007145278621464968 305:0.0 306:0.0 307:0.1624525487422943 308:0.0152633897960186 309:0.11486244201660156 310:0.0602114163339138 311:0.18706057965755463 312:0.002824419643729925 313:0.04249071329832077 314:0.11982396245002747 315:0.2827318012714386 316:0.007578712888062 317:0.0 318:0.008931598626077175 319:0.0 320:0.001263118814677 321:0.0 322:0.0017863197717815638 323:0.0 324:0.0 
-0.08965305992385388 0.0 0.22141111492379945 1:0.0 2:0.0 3:0.0 4:0.0 5:0.0 6:0.0 7:0.0 8:0.0 9:0.0 10:0.0 11:0.0 12:0.0 13:0.0 14:0.0 15:0.0 16:0.0 17:0.0 18:0.0 19:0.5546958446502686 20:0.08859554678201675 21:0.11206547915935516 22:0.08859554678201675 23:0.47545358538627625 24:0.0 25:0.16809821128845215 26:0.08859554678201675 27:0.0 28:0.0 29:0.0 30:0.0 31:0.0 32:0.6339381337165833 33:0.0 34:0.0 35:0.0 36:0.0 37:0.0 38:0.0 39:0.0 40:0.0 41:0.0 42:0.0 43:0.0 44:0.0 45:0.0 46:0.0 47:0.0 48:0.0 49:0.0 50:0.0018392784986644983 51:0.0 52:0.0 53:0.0 54:0.0 55:0.010116031393408775 56:0.0 57:0.015020902268588543 58:0.013390148989856243 59:0.00827675312757492 60:0.0 61:0.003901698626577854 62:0.0 63:0.0 64:0.005517835263162851 65:0.1753082275390625 66:0.4761987328529358 67:0.8337107300758362 68:0.20573608577251434 69:0.0 70:0.04470909759402275 71:0.04977109283208847 72:0.0 73:0.002289751311764121 74:0.0 75:0.003885836573317647 76:0.0 77:0.003663602052256465 78:0.0010240079136565328 79:0.0 80:0.0010240079136565328 81:0.0 82:0.004121552221477032 83:0.0 84:0.0032381974160671234 85:0.0010240079136565328 86:0.005953353364020586 87:0.0 88:0.0012952788965776563 89:0.0010240079136565328 90:0.0014481658581644297 91:0.0068692537024617195 92:0.011729249730706215 93:0.3638165593147278 94:0.7067050933837891 95:0.4512166678905487 96:0.059023503214120865 97:0.029469458386301994 98:0.0362425372004509 99:0.05084080249071121 100:0.09872186183929443 101:0.1533181071281433 102:0.11821267008781433 103:0.14655141532421112 104:0.18756859004497528 105:0.16845473647117615 106:0.052763666957616806 107:0.05347472056746483 108:0.13476800918579102 109:0.007890415377914906 110:0.0 111:5.873017362318933E-4 112:0.0 113:0.0016611401224508882 114:0.0 115:0.0 116:0.0 117:0.0 118:0.0016611401224508882 119:0.0 120:0.25949591398239136 121:0.0018572112312540412 122:0.0020764251239597797 123:0.0 124:5.873017362318933E-4 125:0.0 126:0.0017122640274465084 127:0.032824814319610596 128:0.003917790949344635 129:0.03076626919209957 130:0.01786208525300026 131:0.0016611401224508882 132:0.0 133:0.005079296417534351 134:0.0 135:0.0 136:0.05339496210217476 137:0.4929260015487671 138:0.7776198983192444 139:0.265997976064682 140:0.0766243264079094 141:0.03393576294183731 142:0.02375131845474243 143:0.036524999886751175 144:0.0 145:0.054309211671352386 146:0.034405194222927094 147:0.5276780724525452 148:0.19618965685367584 149:0.028849292546510696 150:0.02308402955532074 151:4.7334100236184895E-4 152:0.049903031438589096 153:0.04262857139110565 154:0.0669163390994072 155:0.14994169771671295 156:0.07407461851835251 157:0.1309313178062439 158:0.06321990489959717 159:0.07013098895549774 160:0.052015796303749084 161:0.08922996371984482 162:0.06088520586490631 163:0.1242784708738327 164:0.12114264816045761 165:0.0980120301246643 166:0.17395460605621338 167:0.14296604692935944 168:0.12669681012630463 169:0.048328183591365814 170:0.06982619315385818 171:0.09060276299715042 172:0.20140838623046875 173:0.1505921334028244 174:0.11406310647726059 175:0.10461866855621338 176:0.1061672791838646 177:0.055516500025987625 178:0.4493180215358734 179:0.34701451659202576 180:0.23371422290802002 181:0.13971316814422607 182:0.15169218182563782 183:0.37163785099983215 184:0.10034691542387009 185:0.15229420363903046 186:0.08721455931663513 187:0.05204692855477333 188:0.03903905674815178 189:0.10922559350728989 190:0.09998682141304016 191:0.3015212118625641 192:0.16301096975803375 193:0.10960746556520462 194:0.017779391258955002 195:0.0 196:0.0011933526257053018 197:0.0 198:0.0026684177573770285 199:0.01674215868115425 200:0.24981698393821716 201:0.7458788156509399 202:0.031717490404844284 203:0.03212093561887741 204:9.434281382709742E-4 205:0.014888282865285873 206:0.011283088475465775 207:0.03166993707418442 208:0.005906794220209122 209:0.002830284647643566 210:0.0011933526257053018 211:0.0 212:0.006328708492219448 213:0.0 214:0.0 215:0.0 216:0.0 217:0.06911211460828781 218:0.02153530903160572 219:0.006930360104888678 220:0.044095903635025024 221:0.25093886256217957 222:0.0021915724501013756 223:0.005544288083910942 224:0.03857416287064552 225:0.12268777191638947 226:0.0812055692076683 227:0.1369982212781906 228:0.20364725589752197 229:0.11048731207847595 230:0.8450376391410828 231:0.22258391976356506 232:0.2282707691192627 233:0.11503752321004868 234:0.06587638705968857 235:0.01960201933979988 236:0.004383144900202751 237:0.002772144041955471 238:0.0 239:0.006860706489533186 240:0.0 241:0.002772144041955471 242:0.0021915724501013756 243:0.0 244:0.015681615099310875 245:0.0 246:0.005544288083910942 247:0.0 248:0.010781110264360905 249:0.0 250:0.0013860720209777355 251:0.0 252:0.0 253:0.010727318935096264 254:0.035926803946495056 255:0.03965405002236366 256:0.4407218098640442 257:0.6993297338485718 258:0.03271789848804474 259:0.011038125492632389 260:0.022414691746234894 261:0.03686033934354782 262:0.0012371729826554656 263:0.1161869615316391 264:0.17070001363754272 265:0.5070012807846069 266:0.09327515214681625 267:0.04579516127705574 268:0.002230345271527767 269:0.0 270:0.0 271:0.0111345574259758 272:0.0 273:0.004374067299067974 274:0.0 275:0.0055672787129879 276:0.0 277:8.748134132474661E-4 278:0.0 279:0.0 280:0.0018557595321908593 281:0.0 282:0.0 283:0.0 284:0.0 285:0.0 286:0.0 287:0.0 288:0.0 289:0.6386865377426147 290:0.0 291:0.22580976784229279 292:0.16830867528915405 293:0.5854626297950745 294:0.0 295:0.1505398452281952 296:0.0 297:0.0 298:0.0 299:0.0 300:0.0 301:0.0 302:0.0 303:0.0 304:0.0 305:0.0 306:0.0 307:0.0 308:0.0 309:0.0 310:0.0 311:0.0 312:0.0 313:0.0 314:0.0 315:0.0 316:0.2128954976797104 317:0.0 318:0.0 319:0.0 320:0.3193432688713074 321:0.0 322:0.0 323:0.0 324:0.0 
-0.0 0.0562367637307863 0.0 1:0.32120704650878906 2:0.0 3:0.13977088034152985 4:0.0 5:0.2717905640602112 6:0.0 7:0.06988544017076492 8:0.0 9:0.0 10:0.3953317403793335 11:0.0 12:0.2795417308807373 13:0.0 14:0.2964988052845001 15:0.0 16:0.20965631306171417 17:0.0 18:0.0 19:0.32120704650878906 20:0.05524929240345955 21:0.10482815653085709 22:0.0 23:0.12354116886854172 24:0.0 25:0.06988544017076492 26:0.0 27:0.0 28:0.37062349915504456 29:0.05524929240345955 30:0.24459901452064514 31:0.05524929240345955 32:0.24708233773708344 33:0.0 34:0.174713596701622 35:0.0 36:0.0 37:0.012690058909356594 38:0.0 39:0.003364959731698036 40:0.0 41:0.006345029454678297 42:0.0 43:0.005608266685158014 44:0.0 45:0.0 46:0.0023793859872967005 47:0.0 48:0.0011216532438993454 49:0.0 50:0.007138157729059458 51:0.0 52:0.0 53:0.0 54:0.0 55:7.931286818347871E-4 56:0.0 57:0.27736619114875793 58:0.18809370696544647 59:0.24692107737064362 60:0.014902855269610882 61:0.04598778486251831 62:0.0 63:0.0 64:0.0031725147273391485 65:0.12552186846733093 66:0.06542260944843292 67:0.6341127753257751 68:0.6198151111602783 69:0.13071806728839874 70:0.0011216532438993454 71:0.0 72:0.025980262085795403 73:0.0 74:0.0 75:0.0 76:0.0 77:0.003346745390444994 78:0.0 79:0.0 80:0.0 81:0.0 82:0.0 83:0.0 84:0.0 85:0.0 86:0.003346745390444994 87:0.0 88:0.0 89:0.0 90:0.0 91:4.1834317380562425E-4 92:0.019887806847691536 93:0.0 94:0.15697762370109558 95:0.9298959374427795 96:0.2560383081436157 97:5.916265654377639E-4 98:0.022932684049010277 99:0.0 100:0.054420944303274155 101:9.354437352158129E-4 102:0.03878111019730568 103:0.11746283620595932 104:0.06337795406579971 105:0.08557548373937607 106:0.08542024344205856 107:0.08007185161113739 108:0.02897460386157036 109:0.03466847166419029 110:0.015312151052057743 111:6.105354405008256E-4 112:0.0324416346848011 113:0.0306845810264349 114:0.0 115:6.105354405008256E-4 116:0.002764316974207759 117:0.0017800014466047287 118:0.04628950357437134 119:0.17942743003368378 120:0.5936299562454224 121:0.4825523793697357 122:0.1613701432943344 123:0.09747105836868286 124:0.0012210708810016513 125:0.02443736605346203 126:0.02968153916299343 127:0.039803847670555115 128:0.01660863682627678 129:6.105354405008256E-4 130:0.009299399331212044 131:0.013848798349499702 132:0.050004128366708755 133:0.001831606263294816 134:0.0 135:0.06388921290636063 136:0.06335482746362686 137:0.03669567033648491 138:0.15970732271671295 139:0.15032723546028137 140:0.4209561049938202 141:0.14541427791118622 142:0.2704801857471466 143:0.0575934462249279 144:0.05414529889822006 145:0.1694638729095459 146:0.06258983910083771 147:0.1715344488620758 148:0.3556576669216156 149:0.15351100265979767 150:0.097389817237854 151:0.10338960587978363 152:0.10564365237951279 153:0.03611748665571213 154:0.15377287566661835 155:0.0608021505177021 156:0.10747675597667694 157:0.08920911699533463 158:0.05581413209438324 159:0.033011458814144135 160:0.13583391904830933 161:0.05946415662765503 162:0.10131219774484634 163:0.025448523461818695 164:0.028767775744199753 165:0.05741790682077408 166:0.10525041073560715 167:0.43899667263031006 168:0.22028248012065887 169:0.04121039807796478 170:0.08617684990167618 171:0.044714704155921936 172:0.22675451636314392 173:0.030413176864385605 174:0.23770371079444885 175:0.42962560057640076 176:0.07498528063297272 177:0.044426385313272476 178:0.2313382625579834 179:0.1863086223602295 180:0.12029075622558594 181:0.11940239369869232 182:0.2663898468017578 183:0.4341428875923157 184:0.39457058906555176 185:0.2293705940246582 186:0.22835025191307068 187:0.12568652629852295 188:0.03354894369840622 189:0.03391186147928238 190:0.03407720848917961 191:0.19509603083133698 192:0.2575516104698181 193:0.04016450420022011 194:0.04809366166591644 195:0.001214877120219171 196:0.07034198194742203 197:0.0156431645154953 198:0.060279905796051025 199:0.0016299287090077996 200:0.012216057628393173 201:0.5604508519172668 202:0.12167514860630035 203:0.020154081284999847 204:0.0 205:0.0 206:0.0019589303992688656 207:0.0 208:0.0016299287090077996 209:0.0 210:7.683557341806591E-4 211:0.0 212:5.433095502667129E-4 213:0.0 214:0.0 215:0.0 216:0.0 217:0.7111238837242126 218:0.05862607806921005 219:0.22247031331062317 220:0.0 221:0.05243675783276558 222:0.0 223:0.07415677607059479 224:0.0 225:0.19101093709468842 226:0.0 227:0.0 228:0.0 229:0.0 230:0.0 231:0.0 232:0.0 233:0.0 234:0.0 235:0.6292411088943481 236:0.0 237:0.0 238:0.0 239:0.0 240:0.0 241:0.0 242:0.0 243:0.0 244:0.02621837891638279 245:0.0 246:0.0 247:0.0 248:0.0 249:0.0 250:0.0 251:0.0 252:0.0 253:0.5521739721298218 254:0.0 255:0.12329871207475662 256:0.0 257:0.2324942946434021 258:0.06498413532972336 259:0.04109957441687584 260:0.0 261:0.0 262:0.2906178832054138 263:0.0 264:0.16439829766750336 265:0.0 266:0.34874144196510315 267:0.0 268:0.16439829766750336 269:0.0 270:0.0 271:0.49405038356781006 272:0.0 273:0.16439829766750336 274:0.0 275:0.08718536049127579 276:0.0 277:0.0 278:0.0 279:0.0 280:0.2324942946434021 281:0.0 282:0.08219914883375168 283:0.0 284:0.11624714732170105 285:0.0 286:0.08219914883375168 287:0.0 288:0.0 289:0.06475204974412918 290:0.0 291:0.09157323092222214 292:0.0 293:0.09712807834148407 294:0.0 295:0.0 296:0.0 297:0.0 298:0.42088833451271057 299:0.0 300:0.09157323092222214 301:0.14478999376296997 302:0.356136292219162 303:0.14478999376296997 304:0.04578661546111107 305:0.0 306:0.0 307:0.3237602710723877 308:0.0 309:0.36629289388656616 310:0.0 311:0.42088833451271057 312:0.0 313:0.09157323092222214 314:0.0 315:0.0 316:0.356136292219162 317:0.0 318:0.1373598426580429 319:0.0 320:0.22663217782974243 321:0.0 322:0.0 323:0.0 324:0.0 
-0.029798881887094234 0.12443764637719174 0.0 1:0.3481544852256775 2:0.0 3:0.09231839329004288 4:0.04865606874227524 5:0.28287550806999207 6:0.0 7:0.06154559925198555 8:0.0 9:0.0 10:0.1523175835609436 11:0.0 12:0.18463678658008575 13:0.0 14:0.5004720687866211 15:0.0 16:0.09231839329004288 17:0.0 18:0.0 19:0.23935620486736298 20:0.0 21:0.1230911985039711 22:0.0 23:0.3046351671218872 24:0.0 25:0.030772799625992775 26:0.0 27:0.0 28:0.2611158788204193 29:0.09731213748455048 30:0.15386399626731873 31:0.04865606874227524 32:0.43519312143325806 33:0.0 34:0.09231839329004288 35:0.0 36:0.0 37:0.051569897681474686 38:0.0 39:0.016830194741487503 40:0.004435146227478981 41:0.029751863330602646 42:0.008870292454957962 43:0.014025162905454636 44:0.0 45:0.0 46:0.013884203508496284 47:0.0 48:0.005610065069049597 49:0.004435146227478981 50:0.03173532336950302 51:0.0 52:0.0028050325345247984 53:0.0 54:0.0 55:0.007933830842375755 56:0.0 57:0.0028050325345247984 58:0.0 59:0.013884203508496284 60:0.0 61:0.0 62:0.0 63:0.0 64:0.0 65:0.0 66:0.0 67:0.004435146227478981 68:0.997159481048584 69:0.0 70:0.0028050325345247984 71:0.0 72:0.0 73:0.0 74:0.0 75:0.0 76:0.0 77:0.015100420452654362 78:0.0 79:0.0 80:0.0 81:0.0 82:0.0 83:0.0 84:0.0 85:0.0 86:0.015100420452654362 87:0.0 88:0.0 89:0.0 90:0.0 91:0.0 92:0.0 93:0.0026694023981690407 94:0.0 95:0.9904754757881165 96:0.0 97:0.0 98:0.0 99:0.0 100:0.0 101:0.0 102:0.0026694023981690407 103:0.0021103478502482176 104:0.1359478384256363 105:0.0 106:0.0013347011990845203 107:0.0 108:0.0 109:0.0053671556524932384 110:0.0 111:6.90027663949877E-4 112:0.0 113:0.008782617747783661 114:0.0 115:6.90027663949877E-4 116:0.0 117:0.0 118:0.00544633436948061 119:0.18774740397930145 120:0.6001534461975098 121:0.19201630353927612 122:0.20031872391700745 123:0.045937396585941315 124:0.023471718654036522 125:0.0 126:0.0 127:0.0497969314455986 128:0.041920121759176254 129:0.010011347010731697 130:0.03275108337402344 131:0.04649833217263222 132:0.03581835329532623 133:0.0 134:0.0010910294950008392 135:0.04637584462761879 136:0.12957298755645752 137:0.1470857560634613 138:0.20699717104434967 139:0.24475780129432678 140:0.4314730167388916 141:0.33803635835647583 142:0.25126779079437256 143:0.09494074434041977 144:0.0 145:0.03329791873693466 146:0.018951628357172012 147:0.25484994053840637 148:0.29893550276756287 149:0.13285206258296967 150:0.13763821125030518 151:0.06418941915035248 152:0.022713717073202133 153:0.031056292355060577 154:0.00741003779694438 155:0.048300255089998245 156:0.16959352791309357 157:0.09868939220905304 158:0.2740999460220337 159:0.10159385949373245 160:0.08633720874786377 161:0.02216198854148388 162:0.08658532798290253 163:0.06153888627886772 164:0.07164067775011063 165:0.05328819155693054 166:0.08438877016305923 167:0.5124228596687317 168:0.1758689433336258 169:0.07558996230363846 170:0.0799420177936554 171:0.052458636462688446 172:0.25155729055404663 173:0.08689454197883606 174:0.13289546966552734 175:0.30882135033607483 176:0.1857481151819229 177:0.006550228223204613 178:0.2920631170272827 179:0.13773009181022644 180:0.101584792137146 181:0.01825788803398609 182:0.09616299718618393 183:0.2563738524913788 184:0.24016472697257996 185:0.6095790863037109 186:0.1885949671268463 187:0.18178126215934753 188:0.05109379068017006 189:0.022294998168945312 190:0.15050794184207916 191:0.10782049596309662 192:0.1589766889810562 193:0.094893679022789 194:0.06312775611877441 195:0.07683636248111725 196:0.0750834047794342 197:0.06831008195877075 198:0.02731594629585743 199:0.002666706219315529 200:0.0 201:0.5658944249153137 202:0.0992186889052391 203:0.05748112127184868 204:0.008248715661466122 205:0.0 206:0.02718389593064785 207:0.0015707302372902632 208:0.0019047902897000313 209:0.0 210:5.387560231611133E-4 211:0.0 212:0.00228574825450778 213:0.0 214:0.0 215:0.0 216:0.0 217:0.5428889393806458 218:0.0 219:0.2810383439064026 220:0.0 221:0.28389161825180054 222:0.0 223:0.16059334576129913 224:0.06348010152578354 225:0.20682592689990997 226:0.028389163315296173 227:0.0 228:0.0 229:0.06348010152578354 230:0.056778326630592346 231:0.0 232:0.0 233:0.0 234:0.0 235:0.6813399195671082 236:0.0 237:0.0 238:0.0 239:0.0 240:0.0 241:0.0 242:0.0 243:0.0 244:0.028389163315296173 245:0.0 246:0.0 247:0.0 248:0.0 249:0.0 250:0.0 251:0.0 252:0.0 253:0.29801809787750244 254:0.0 255:0.1505218744277954 256:0.0 257:0.5977979898452759 258:0.13463085889816284 259:0.10685577243566513 260:0.0 261:0.0 262:0.23415708541870117 263:0.0 264:0.09031312167644501 265:0.0 266:0.4044531583786011 267:0.10854286700487137 268:0.22727325558662415 269:0.0 270:0.0 271:0.3831661343574524 272:0.0 273:0.12041749805212021 274:0.0 275:0.06386101990938187 276:0.0 277:0.030104374513030052 278:0.0 279:0.0 280:0.14900904893875122 281:0.0 282:0.09031312167644501 283:0.0 284:0.10643503814935684 285:0.0 286:0.060208749026060104 287:0.0 288:0.0 289:0.03693559020757675 290:0.0 291:0.0 292:0.0 293:0.0738711804151535 294:0.0 295:0.0 296:0.0 297:0.0 298:0.5170982480049133 299:0.0 300:0.15670444071292877 301:0.0825904905796051 302:0.33242031931877136 303:0.1651809811592102 304:0.10446962714195251 305:0.0 306:0.0 307:0.48016268014907837 308:0.0 309:0.41787847876548767 310:0.0 311:0.18467795848846436 312:0.0 313:0.15670444071292877 314:0.0 315:0.0 316:0.147742360830307 317:0.0 318:0.0 319:0.0 320:0.2216135412454605 321:0.0 322:0.10446962714195251 323:0.0 324:0.0 
-0.035582308897205074 0.1229302920736704 0.15007828839184356 1:0.12060429900884628 2:0.0 3:0.14213353395462036 4:0.0 5:0.4221150577068329 6:0.0 7:0.028426704928278923 8:0.0 9:0.0 10:0.34171217679977417 11:0.0 12:0.25584033131599426 13:0.044946569949388504 14:0.301510751247406 15:0.044946569949388504 16:0.08528011292219162 17:0.0 18:0.0 19:0.3216114640235901 20:0.044946569949388504 21:0.28426700830459595 22:0.0 23:0.18090644478797913 24:0.0 25:0.17056022584438324 26:0.044946569949388504 27:0.0 28:0.36181288957595825 29:0.0 30:0.2274136245250702 31:0.0 32:0.22110788524150848 33:0.0 34:0.14213353395462036 35:0.0 36:0.0 37:0.2482215166091919 38:0.0 39:0.21062292158603668 40:0.05550402030348778 41:0.7446645498275757 42:0.0 43:0.14041529595851898 44:0.0 45:0.0 46:0.17375506460666656 47:0.0 48:0.17551910877227783 49:0.0 50:0.446798712015152 51:0.0 52:0.07020764797925949 53:0.0 54:0.0 55:0.09928860515356064 56:0.0 57:0.0 58:0.0 59:0.19857721030712128 60:0.0 61:0.035103823989629745 62:0.0 63:0.0 64:0.0 65:0.0 66:0.0 67:0.0 68:0.02482215128839016 69:0.0 70:0.0 71:0.0 72:0.0 73:0.18543387949466705 74:0.0 75:0.11238989979028702 76:0.0 77:0.6622638702392578 78:0.0 79:0.07492659986019135 80:0.0 81:0.0 82:0.3708677589893341 83:0.0 84:0.22477979958057404 85:0.0 86:0.5298110842704773 87:0.0 88:0.1498531997203827 89:0.0 90:0.0 91:0.0 92:0.0 93:0.0 94:0.0 95:0.0 96:0.0 97:0.0 98:0.0 99:0.0 100:0.0 101:0.0 102:0.0 103:0.0 104:0.13245277106761932 105:0.0 106:0.0 107:0.0 108:0.0 109:0.005683751776814461 110:0.0012709255097433925 111:0.04304618388414383 112:0.0 113:0.04698333144187927 114:0.0 115:0.004822823219001293 116:0.035654280334711075 117:0.0495745912194252 118:0.09631205350160599 119:0.09476187080144882 120:0.28854575753211975 121:0.43679332733154297 122:0.4046642780303955 123:0.032031524926424026 124:0.0744958147406578 125:0.012465441599488258 126:0.12682338058948517 127:0.015438363887369633 128:0.03453423082828522 129:8.038038504309952E-4 130:0.0 131:0.014223580248653889 132:0.02552630938589573 133:8.038038504309952E-4 134:0.026709772646427155 135:0.001797360135242343 136:5.683751660399139E-4 137:0.0 138:0.06370099633932114 139:0.127581387758255 140:0.2189035713672638 141:0.39222824573516846 142:0.5036983489990234 143:0.1707908660173416 144:0.07280751317739487 145:0.06156519427895546 146:0.011162166483700275 147:0.05788751319050789 148:0.22781600058078766 149:0.3240015506744385 150:0.19546620547771454 151:0.06943070143461227 152:0.02450336329638958 153:0.09611047059297562 154:0.11214251816272736 155:0.002528264420107007 156:0.0730031207203865 157:0.07291578501462936 158:0.3816221356391907 159:0.23533059656620026 160:0.0034422650933265686 161:0.06599049270153046 162:0.028161732479929924 163:0.14714939892292023 164:0.09526228159666061 165:0.07031020522117615 166:0.08803891390562057 167:0.3080899715423584 168:0.2812492549419403 169:0.17360544204711914 170:0.09929113835096359 171:0.027111755684018135 172:0.06308799982070923 173:0.1668982356786728 174:0.20686925947666168 175:0.29713374376296997 176:0.25461676716804504 177:0.06099472567439079 178:0.23332475125789642 179:0.08154164999723434 180:0.05342518910765648 181:0.03312100097537041 182:0.030743107199668884 183:0.09499268978834152 184:0.0729384645819664 185:0.3776269555091858 186:0.7167865633964539 187:0.06577897071838379 188:0.12494733184576035 189:0.0 190:0.05321350693702698 191:0.07391814142465591 192:0.0027870077174156904 193:0.004493915010243654 194:0.07669786363840103 195:0.025911720469594002 196:0.04236692190170288 197:0.03125682473182678 198:0.010345769114792347 199:0.0011824272805824876 200:0.010929903015494347 201:0.3814197778701782 202:0.30315178632736206 203:0.19354473054409027 204:0.033685967326164246 205:0.0629236102104187 206:0.03378371149301529 207:0.0082863699644804 208:0.006700420752167702 209:0.07183105498552322 210:0.026197873055934906 211:0.03578899800777435 212:0.03298773244023323 213:8.813292370177805E-4 214:0.001114803017117083 215:0.0022982254158705473 216:0.0 217:0.6092313528060913 218:0.0 219:0.0 220:0.0 221:0.0 222:0.0 223:0.0 224:0.0 225:0.0 226:0.1384616643190384 227:0.0 228:0.15665149688720703 229:0.0 230:0.027692334726452827 231:0.0 232:0.0 233:0.0 234:0.0 235:0.6369236707687378 236:0.0 237:0.0 238:0.0 239:0.0 240:0.0 241:0.0 242:0.0 243:0.0 244:0.360000342130661 245:0.061921942979097366 246:0.1958143711090088 247:0.0 248:0.08307699859142303 249:0.0 250:0.0 251:0.0 252:0.0 253:0.33535444736480713 254:0.0 255:0.2529401183128357 256:0.07069892436265945 257:0.3595617413520813 258:0.07069892436265945 259:0.06323503702878952 260:0.0 261:0.0 262:0.06707088649272919 263:0.0 264:0.03161751851439476 265:0.04999168962240219 266:0.3800683617591858 267:0.0 268:0.12647007405757904 269:0.0 270:0.0 271:0.6707088947296143 272:0.0 273:0.06323503702878952 274:0.0 275:0.02235696278512478 276:0.0 277:0.0 278:0.0 279:0.0 280:0.08942785114049911 281:0.04999168962240219 282:0.12647007405757904 283:0.04999168962240219 284:0.11178480833768845 285:0.0 286:0.12647007405757904 287:0.0 288:0.0 289:0.05817272514104843 290:0.06503908336162567 291:0.08226865530014038 292:0.0 293:0.11634545028209686 294:0.0 295:0.24680596590042114 296:0.0 297:0.0 298:0.6108136177062988 299:0.2601563334465027 300:0.20567165315151215 301:0.13007816672325134 302:0.46538180112838745 303:0.13007816672325134 304:0.12340298295021057 305:0.0 306:0.0 307:0.14543181657791138 308:0.06503908336162567 309:0.12340298295021057 310:0.0 311:0.26177728176116943 312:0.0 313:0.20567165315151215 314:0.0 315:0.0 316:0.08725909143686295 317:0.0 318:0.0 319:0.0 320:0.05817272514104843 321:0.0 322:0.0 323:0.0 324:0.0 
